{
  "generation": 34,
  "levels": [
    {
      "inputs": [
        0.6766570739320388, 0.6914124762414462, 0.45522148673185414, 0,
        0.4301734378697143, 0.5755609692544799, 0.8800237920126418,
        0.9230300660287292, 0.4109208801133103
      ],
      "outputs": [0, 1, 0, 1, 1, 0],
      "biases": [
        0.491178747167625, -0.4047810735995436, 0.04451841207527636,
        -0.6436726083516384, 0.2416176525975275, 0.7096860272205394
      ],
      "weights": [
        [
          0.13344610237145577, 0.5657325805307302, -0.1899407941924368,
          0.23435185284096335, 0.7475303915745896, 0.4579279654170383
        ],
        [
          0.4900097395041372, -0.7385800964757542, 0.2052997330140599,
          -0.4556192436231434, 0.7608880806909538, 0.5042101814757374
        ],
        [
          -0.5608182846662987, 0.3985287969904948, -0.34695860445316445,
          0.1853232416261264, -0.5725914386867347, 0.7937773199107263
        ],
        [
          -0.6007289480463985, 0.5677236311679729, 0.2741880806944149,
          -0.5295360338635327, -0.031663141367658514, -0.6974933151329861
        ],
        [
          -0.3263278580803648, 0.22080202230241816, -0.19996888867224627,
          0.03715145050948764, -0.12239711186674977, -0.5889244869689042
        ],
        [
          -0.021406537273860625, 0.37954493039266946, 0.26211249893965377,
          -0.6615632873707377, 0.6191060835378926, -0.5751221135619966
        ],
        [
          -0.13075339498043087, 0.03475640765744086, -0.4128811295400467,
          0.13725277442755957, 0.01658332834908505, -0.2933368206951146
        ],
        [
          0.41882240094905654, -0.20619109732025773, -0.3092824673769666,
          0.23897212532754641, -0.31632578132668443, 0.16462833778989255
        ],
        [
          0.05955819891051345, -0.527448770662599, -0.2661025691219561,
          -0.4110827711130696, 0.42078169551728606, 0.6973627563823542
        ]
      ]
    },
    {
      "inputs": [0, 1, 0, 1, 1, 0],
      "outputs": [1, 0, 0, 0],
      "biases": [
        0.20764681952868924, -0.6920453221628162, 0.43440933597965803,
        0.42631882267700355
      ],
      "weights": [
        [
          -0.3924595630176379, 0.6783227755854191, 0.021859758159433557,
          -0.2543531180407881
        ],
        [
          0.5249586352309866, -0.6892806991987536, 0.32873767554416333,
          0.2299030389672579
        ],
        [
          0.17147111581182128, 0.4828152183723082, 0.5874335344242709,
          -0.19787287622948094
        ],
        [
          0.35937514579966734, -0.5069102273407209, -0.0664858500440126,
          -0.6427844606848538
        ],
        [
          -0.10759407939880693, -0.5039176370991295, 0.06488641305769573,
          -0.4328700547813756
        ],
        [
          -0.46190212951373383, 0.2630354592222371, 0.4733233654834456,
          -0.2520653015640275
        ]
      ]
    }
  ]
}
