{
  "generation": 63,
  "levels": [
    {
      "inputs": [
        0, 0.1717985499771051, 0.34551301185420713, 0.25741559467365527, 0,
        0.24615396400409506, 0.891056119970145, 0.9286595035954509,
        0.9298366761220306, 0.8980355398609351, 0.5330662319374069
      ],
      "outputs": [0, 0, 0, 0, 1, 0, 1, 1],
      "biases": [
        0.2843040874110978, 0.13757503437746127, 0.5166195145825128,
        -0.22558589310165983, -0.10853328655377652, -0.0428250959500534,
        -0.14571727021508574, -0.3110229273992269
      ],
      "weights": [
        [
          0.20406698592468198, -0.10557530283070556, 0.42456439790905126,
          -0.3856506118359268, 0.07173319349322481, 0.06446088064876702,
          -0.13199515361102032, -0.36793025454632644
        ],
        [
          0.20343478210550403, -0.04978610681890706, -0.11819571625550505,
          0.11155887045711997, -0.08531126257750157, 0.28889848405603685,
          -0.4196303546286018, 0.7157453643170769
        ],
        [
          0.1653594478293199, 0.3737238319923983, 0.06730890993491472,
          -0.320647227862601, -0.22747240514182213, -0.03431752596941096,
          -0.10630193817738846, 0.12845313403171538
        ],
        [
          -0.05991833947340686, -0.392879073260054, 0.1811355283220092,
          0.4124134869666725, -0.4127505016509595, 0.11124059017049585,
          0.3657650478774802, 0.5574407821248848
        ],
        [
          -0.0735408517229839, -0.37940290664098697, -0.07537735728053324,
          0.021819959768016848, 0.3170179116913758, -0.16322007327999802,
          -0.23006093187141854, -0.07251206119729998
        ],
        [
          0.06566310799953975, 0.15492703994217485, 0.10976135811582129,
          0.15957532083070303, -0.04456462337667776, 0.302983335104306,
          -0.32839543330008475, 0.29392763350420353
        ],
        [
          -0.4565056862428375, 0.4410426792226054, -0.15225123578016828,
          -0.4566544066109646, -0.08879531700430977, -0.2706376924935299,
          -0.3965719817023141, -0.30510018376454934
        ],
        [
          -0.1975167675490312, -0.03827069235892043, -0.006266592968556404,
          0.015893860063937604, -0.017133348472140285, -0.07841671927044747,
          0.2486009920477049, 0.11214536438192661
        ],
        [
          -0.12248255154219723, -0.20386475331258608, 0.245037134923056,
          -0.23989135099711317, 0.1485872843154863, 0.07919538340896343,
          0.047875199037908406, 0.028078929240726965
        ],
        [
          0.01763766700263638, -0.23386873013324527, 0.02916305790103647,
          -0.07464193734906419, 0.0835157684550071, 0.1344798758759454,
          0.18482835324379507, -0.43219940864459044
        ],
        [
          0.2786805707913974, 0.1978415314715603, -0.14613187628857985,
          -0.015364795463370875, 0.3253513754950127, -0.2739400251905537,
          -0.2112846054517982, -0.09838218532478511
        ]
      ]
    },
    {
      "inputs": [0, 0, 0, 0, 1, 0, 1, 1],
      "outputs": [1, 1, 0, 1, 1, 0],
      "biases": [
        -0.5057449656111236, 0.04845552699561119, 0.43038759177311414,
        0.08073002392856161, 0.19233644620307322, 0.15783350559331585
      ],
      "weights": [
        [
          -0.025785145075589176, 0.39570195368065664, -0.16069094800591938,
          0.05549209572564313, -0.32399456571043267, 0.44586917498485823
        ],
        [
          0.156883798577007, -0.0807702369475271, -0.09709892933858642,
          -0.14899935589230393, -0.2373094088923151, 0.3397528879203347
        ],
        [
          0.008110203953761042, 0.2948298207021953, -0.22100298943179533,
          -0.011607134274653194, -0.37889105493170583, 0.10435165230626843
        ],
        [
          -0.204914952414851, 0.14522164941396512, -0.2646270964959613,
          0.2383431637211416, -0.06706888324175438, -0.12154393136521076
        ],
        [
          -0.13092413359662225, 0.3133381422730602, -0.1711900790927642,
          -0.01651134415128109, 0.299125182090579, -0.0538774624654317
        ],
        [
          -0.2748410549417307, 0.031510771523679836, 0.5241055942646506,
          0.06681438173485957, 0.2879664977975451, 0.23709062143724124
        ],
        [
          0.3185373695801187, 0.3044905363792222, -0.21463673253218343,
          -0.12645622267305973, 0.04062142317135696, -0.3488566223391115
        ],
        [
          -0.119533632408987, 0.3698259579163863, 0.0897830308745965,
          0.31095490781514495, 0.537839217990324, 0.0675919456204795
        ]
      ]
    },
    {
      "inputs": [1, 1, 0, 1, 1, 0],
      "outputs": [1, 0, 0, 0],
      "biases": [
        -0.490114812269876, -0.09351448838552319, 0.05938965207215233,
        0.2826318845536319
      ],
      "weights": [
        [
          0.49839075838986246, 0.1659653048299197, -0.4206138504562097,
          -0.27886506034516706
        ],
        [
          -0.31111813787108517, -0.43640748761664455, 0.07905078376559256,
          -0.6482150497013281
        ],
        [
          -0.13805905637824537, 0.1408396979576122, -0.3553465259565026,
          0.008329272999812011
        ],
        [
          0.28916319357224857, 0.27218251686611256, 0.15410854992692039,
          0.4991475933154748
        ],
        [
          0.19631887297504202, -0.19854292704087315, 0.17190539895685047,
          0.2586174665782618
        ],
        [
          0.17998380000339986, 0.20753360031519305, 0.23935197349466317,
          -0.2992508436246726
        ]
      ]
    }
  ]
}
