{
  "generation": 44,
  "levels": [
    {
      "inputs": [
        0, 0.14878540078189284, 0.341482953399435, 0.26668010209503756, 0, 0,
        0.8902170496000499, 0.9301353473508034, 0.9325126440031989,
        0.9043603329630374, 0.6241543977077533
      ],
      "outputs": [0, 0, 0, 0, 1, 0, 1, 1],
      "biases": [
        0.28446536020266266, 0.14392682394190504, 0.5308698913476391,
        -0.23074156536617912, -0.10728833802880153, -0.04177913557588315,
        -0.14903333808159042, -0.3186647976191172
      ],
      "weights": [
        [
          0.21458200776210545, -0.10491950704858365, 0.4275305559681665,
          -0.38809422776470287, 0.07476705661405114, 0.06774265916925588,
          -0.1381839850532697, -0.3769997436094817
        ],
        [
          0.21079222234846484, -0.043673835825418506, -0.11610622954808757,
          0.1133498055900409, -0.08859390240235147, 0.2919027871552507,
          -0.4222321157343951, 0.729277108345564
        ],
        [
          0.163354579788144, 0.38100974794928694, 0.06360440904593402,
          -0.3225565811314915, -0.23193650351235637, -0.03847078557995018,
          -0.10837733021087137, 0.13432738030056626
        ],
        [
          -0.06033914562894043, -0.39642250562101006, 0.18601586296941044,
          0.4192569577164572, -0.4221124339115791, 0.11097546707333192,
          0.36849706703683865, 0.5746633985225656
        ],
        [
          -0.07474635472943408, -0.3853732244722618, -0.07559213002564692,
          0.019907114670699843, 0.32496582004570707, -0.16936950531546738,
          -0.23475855393053238, -0.07059693019606839
        ],
        [
          0.06898920221334567, 0.1523621346683608, 0.11234901790837852,
          0.16690396993652476, -0.04739375214259064, 0.3090952106786355,
          -0.3320714638565111, 0.2957689298176838
        ],
        [
          -0.46005820309442585, 0.44504582753125693, -0.1586869084089768,
          -0.46987575867577835, -0.09149748248607324, -0.2719065644618558,
          -0.40393703692078664, -0.3129360152139913
        ],
        [
          -0.19915376469522564, -0.04399983411059637, -0.0038788707348673414,
          0.011451287369535811, -0.021700019739552923, -0.08030265997570231,
          0.248325087925498, 0.1147893062012714
        ],
        [
          -0.12266197672382328, -0.20648390162285313, 0.2485531245632193,
          -0.2487672681231207, 0.15493843592635534, 0.07950702248228021,
          0.0483708865724851, 0.03403385438929062
        ],
        [
          0.019787872068690433, -0.24050063448613376, 0.035985243627313424,
          -0.07782259502801807, 0.08923303285656738, 0.14043599484195451,
          0.18946418206242321, -0.4438668155676828
        ],
        [
          0.27745187166843044, 0.19615252915281892, -0.1512446076776314,
          -0.015319458508086727, 0.32592188610965905, -0.2807975479797288,
          -0.21832055199945688, -0.1044338345588624
        ]
      ]
    },
    {
      "inputs": [0, 0, 0, 0, 1, 0, 1, 1],
      "outputs": [1, 1, 0, 1, 1, 0],
      "biases": [
        -0.511449421163972, 0.05229588589826022, 0.43465579085866834,
        0.08453022740287106, 0.19533429316444828, 0.15512678307169336
      ],
      "weights": [
        [
          -0.02286095655090941, 0.3963849326480559, -0.15874918615092168,
          0.05321679734831503, -0.3324575919930199, 0.4496222791278005
        ],
        [
          0.16418532926756008, -0.08271017630905415, -0.10085886637256954,
          -0.1508644833695117, -0.2372855769507039, 0.3454331935020762
        ],
        [
          0.013135103027371656, 0.303294348957289, -0.22809239518938185,
          -0.01529854394329266, -0.39354312125497287, 0.10397593747368054
        ],
        [
          -0.2184734633065796, 0.1481282134442779, -0.2692587340172318,
          0.2406001871377947, -0.06436912390506039, -0.1214393071600816
        ],
        [
          -0.12685961037747306, 0.3147577479471962, -0.17947096474539062,
          -0.013062725436999684, 0.29670415704410485, -0.05666031341708745
        ],
        [
          -0.27331702022274273, 0.03218108440241714, 0.5384641694848427,
          0.07194824868178232, 0.2939522535666832, 0.2346376880661858
        ],
        [
          0.32689807160517304, 0.3062735983479122, -0.22072775981371126,
          -0.1321616505747576, 0.043795657198166214, -0.3549816647608257
        ],
        [
          -0.12435517457073805, 0.3730540426055707, 0.09489420557048171,
          0.32098818893548636, 0.5461714795539274, 0.06766770668456612
        ]
      ]
    },
    {
      "inputs": [1, 1, 0, 1, 1, 0],
      "outputs": [1, 0, 0, 0],
      "biases": [
        -0.5028009682153192, -0.09921227797799906, 0.06156125489898418,
        0.2816226165962591
      ],
      "weights": [
        [
          0.5071670677332479, 0.17394967474001638, -0.4286933643447452,
          -0.2784518327466143
        ],
        [
          -0.30970119506725174, -0.447908846752109, 0.08565297084553018,
          -0.6570606539595719
        ],
        [
          -0.1399574399497669, 0.14194483565271832, -0.3565606425717187,
          0.009788048962133797
        ],
        [
          0.29205035145274, 0.27758032539339206, 0.1598988186262458,
          0.510426418375358
        ],
        [
          0.19557258529626007, -0.205752671189401, 0.1821735335809153,
          0.2654063047748891
        ],
        [
          0.1863475082585124, 0.20988124430438831, 0.24458469693496532,
          -0.30856665328491756
        ]
      ]
    }
  ]
}
