[
  {
    "version": 171,
    "score": 2215.9905683087404,
    "mutationFactor": 0,
    "mutationIndex": 0,
    "levels": [
      {
        "inputs": [
          0.879445129768057, 0.8787272097058948, 0.8503417024746476,
          0.7429536784431345, 0.8758750836528442, 0.8661224967970672, 0,
          0.17620448610535577, 0.21318887056103575, 0.9983333333333334
        ],
        "outputs": [0, 0, 1, 0, 1, 1, 1, 0, 0],
        "biases": [
          0, 0, 0, -0.059526226706814886, -0.10807777363156734,
          0.25128831322378953, -0.04843984796451647, 0.2316613930165225,
          0.40067536405100934
        ],
        "weights": [
          [
            -0.02381964383368721, -0.15122821785165266, 0.043465378762496745,
            -0.6150880728694785, 0.2807896790154071, 0.3988796336738335,
            0.15232019939897806, -0.36631047470877925, 0.059920340441979324
          ],
          [
            -0.1887325143053361, -0.6265288028246361, 0.030984186477151187,
            -0.1941641320926097, 0.09561068409836578, 0.17044483328202054,
            0.11157545990983567, -0.09463074933267922, -0.18333056822965432
          ],
          [
            0.14049352087816971, -0.19772821209839508, -0.2738124365301917,
            0.007443804514118697, -0.07640804242586434, -0.1681559170884165,
            -0.3822893807400265, -0.03365806117146651, -0.36186510917868586
          ],
          [
            -0.050275469679536874, 0.18430909427244618, 0.20983280185731654,
            -0.49179187282924813, 0.05463915908540214, 0.2682023064854448,
            -0.29294366827537655, 0.04283554083332921, -0.041680541514258374
          ],
          [
            -0.024320552549373722, 0.03540578219395618, -0.15276037752145702,
            -0.3606482402105412, 0.2330944899039882, 0.5323367233344247,
            0.5662900962391764, 0.32578453781278294, 0.40385197211206036
          ],
          [
            -0.07265619098820726, 0.2094644792141975, -0.256888872517994,
            -0.37668964877682465, 0.017484562929983228, -0.0030265005603084716,
            0.028615939298671424, 0.13757808368286084, -0.06847875948725765
          ],
          [
            -0.13622546742146088, 0.3490332659533749, 0.14415543849139845,
            0.4605810938190109, -0.22047097933314058, 0.19974039261506638,
            -0.13318790201559508, 0.07901829685956116, 0.027548011543977617
          ],
          [
            -0.18756621826588024, 0.17515596095278016, -0.2980100411478307,
            0.3274424772937533, 0.36852652753837833, -0.01239191590091419,
            0.18190539971445788, -0.5149093093342443, 0.3764920961073318
          ],
          [
            0.07079204237872687, -0.5696552907604178, -0.22422312724903812,
            -0.04097955984168742, 0.1675561353450229, 0.15836609662277368,
            -0.11214762166068824, 0.2239449556406887, 0.15962369440294358
          ],
          [
            0.17407956486553589, 0.3042174649160785, 0.39862956937816213,
            0.163865771032766, -0.42795299241254475, -0.3159989980261937,
            -0.15769947867918357, -0.4512726148036929, 0.06655146639408333
          ]
        ]
      },
      {
        "inputs": [0, 0, 1, 0, 1, 1, 1, 0, 0],
        "outputs": [1, 1, 0, 0, 0, 1, 1, 1],
        "biases": [
          -0.08702581248314795, -0.04190185987165651, 0.4409258461888426,
          0.15503923639226624, 0.23539039744768275, -0.43763493728987096,
          0.133813164443591, -0.6904447799531964
        ],
        "weights": [
          [
            0.018125733983762108, 0.39074431157590556, -0.46538566024209244,
            -0.2726162004792626, 0.035641988303152176, -0.6362838344790056,
            -0.06560540670892927, 0.03515352087981627
          ],
          [
            0.5648967963566803, 0.44254472360169866, 0.256900621417272,
            0.1149649286029574, -0.14061981443639515, 0.3012340945841127,
            -0.557705688960343, -0.08575313899918946
          ],
          [
            0.15367850404713307, -0.04771332574599384, 0.1744758345822717,
            -0.07037766463361662, -0.016414658839444318, -0.10921585506267613,
            0.27259378085026154, -0.1592145416341133
          ],
          [
            0.40995324932922733, 0.018824936153825546, 0.43234342151401034,
            0.04071464652639628, -0.4337837074679122, -0.1581297541844234,
            -0.13076383544181258, -0.020853121225884914
          ],
          [
            0.267217096668745, 0.04270677221153829, -0.2800132944495701,
            0.04116597333334918, 0.1267469814876721, 0.410088888584971,
            0.42283915050578813, 0.36046067359510303
          ],
          [
            0.1576022458228029, 0.05924477588809769, 0.0634163999167066,
            0.08570782331782589, -0.5105422158955573, -0.12686123116551995,
            0.42846831194857854, -0.1366477155463231
          ],
          [
            -0.061468959982737326, 0.39608979213771806, -0.30617702259964746,
            -0.3138475509732654, -0.20968485570271553, 0.07896621864766129,
            0.14841828120257888, 0.5644239423145048
          ],
          [
            -0.3602371270232856, 0.08673687499359778, -0.13749763297226966,
            -0.2673873593174293, -0.4331019048475347, -0.07035762641473256,
            0.021036456646511187, 0.3688040805346127
          ],
          [
            -0.2832434450395685, 0.08717929089251852, -0.051057068516370964,
            -0.04300963981485639, -0.11318656484648093, -0.23021795395128658,
            -0.03787633547690778, -0.25280926610529303
          ]
        ]
      },
      {
        "inputs": [1, 1, 0, 0, 0, 1, 1, 1],
        "outputs": [1, 0, 1, 1, 1, 0, 0, 0],
        "biases": [
          -0.14571617943406506, 0.5064223917693627, 0.17646066314347017,
          -0.31407242084743797, -0.42272705171068065, -0.03160816699560437,
          0.059303189569210324, 0.23185007270644045
        ],
        "weights": [
          [
            -0.269766622120203, -0.09868279863997825, -0.2402712899945417,
            0.2900300249967682, -0.4286086909666159, 0.03231646388372449,
            -0.24903748475760315, -0.19425866403618025
          ],
          [
            0.3577109142926122, 0.24042827286146545, 0.3210728310507859,
            0.0731385594074892, 0.0992363851123715, -0.24311114489381297,
            -0.05247412746994393, 0.3728780060963223
          ],
          [
            0.04795770518852525, -0.08319004800665597, 0.3553951662390291,
            0.04722767261651098, -0.15053519002467677, 0.10114300340875,
            0.5689471378978578, -0.08767875895462068
          ],
          [
            0.033994107140551816, -0.017226260219191006, -0.3731473088162259,
            0.17989187551065913, -0.45876997436297684, -0.10656758043141447,
            0.46032513242959056, 0.19471859605356798
          ],
          [
            0.20625015200000252, -0.2982964839359767, -0.5290991327717606,
            0.040666574748491134, 0.3425287763714681, 0.3220328256174275,
            -0.4710208277254917, -0.21728911125229391
          ],
          [
            -0.1371838895030953, -0.03142830787221284, 0.12381100158771735,
            -0.47717155532510974, 0.4759200379856689, -0.4541949328150192,
            0.09375152942642351, -0.16835699328339712
          ],
          [
            0.26859780160144736, 0.2257432675267661, -0.1668688714331211,
            0.23971991426510328, 0.6135400582353018, -0.27423285112758483,
            -0.1779389011993034, -0.18430228169613128
          ],
          [
            0.06448607456083615, -0.04023314813182868, 0.1595871792274181,
            0.1815062857152871, -0.5261654290606026, -0.23441499666251714,
            0.31132340953130305, 0.19889365172489878
          ]
        ]
      },
      {
        "inputs": [1, 0, 1, 1, 1, 0, 0, 0],
        "outputs": [0, 0, 1, 1, 1, 1, 0],
        "biases": [
          0.500604665271831, -0.47567001800577385, 0.21926295413863325,
          -0.1289321458563297, -0.3056926550425831, -0.2488735846601513,
          0.40843624053227995
        ],
        "weights": [
          [
            -0.20489407838281024, 0.04233738876297943, -0.061314301945990635,
            0.11202997200974839, -0.13304525195995975, -0.13199994403168858,
            0.13505822461833872
          ],
          [
            -0.10299522889840144, 0.19534898789020952, 0.1190399396716394,
            -0.3252972942261174, -0.3312373901672557, 0.4799188758198404,
            0.07845910566224934
          ],
          [
            0.15084041870502413, -0.14817108204012516, 0.1988035871983695,
            0.09736660910149533, -0.14759794460851594, -0.26706101892076456,
            -0.48292892723981723
          ],
          [
            -0.03726677580571412, -0.40063890352259357, -0.03944538235959435,
            -0.344060606816468, 0.2358616874178406, 0.456988207328521,
            0.13973120349523355
          ],
          [
            0.3384826509334639, -0.40194171341767365, 0.3291670871823189,
            0.09938088260008218, 0.09926280788785759, -0.04639944608698683,
            -0.04520104274361933
          ],
          [
            -0.03008601169830946, -0.36367061536934847, -0.058773566819054546,
            -0.4348087983841739, 0.09701330012783581, 0.06913889397320094,
            -0.3627128372198156
          ],
          [
            -0.4249710243599293, -0.3231889759627969, -0.15543444164790018,
            -0.6024617360601321, -0.16011914460226717, 0.13253261531181965,
            0.346158901705944
          ],
          [
            -0.1459385914018906, -0.10376214412417972, -0.25503781229721245,
            0.3705321467151235, 0.008619030658101497, 0.0689011288677254,
            -0.06886020505079071
          ]
        ]
      },
      {
        "inputs": [0, 0, 1, 1, 1, 1, 0],
        "outputs": [1, 0, 1, 0, 0, 1, 0],
        "biases": [
          0.05043410760178398, 0.3135638492723752, 0.1748218093677784,
          0.21625472598122905, 0.09252993244785654, -0.1203742879496329,
          0.44149830609039875
        ],
        "weights": [
          [
            -0.22562080900635104, 0.36662102040645744, -0.5447702094777237,
            0.20940091659351748, -0.158475446839126, 0.0027339296011928424,
            -0.4044214308261772
          ],
          [
            -0.3541694029548327, 0.08813655567521947, -0.03284689387707638,
            -0.10007111479075893, -0.0526363133171879, 0.10172013343274801,
            0.02157467526463157
          ],
          [
            0.3941374775079077, -0.054199302480947266, 0.28817739853198154,
            -0.343892288327596, -0.21338970992025202, -0.2347724545896424,
            -0.3165240405716938
          ],
          [
            -0.04419345438246976, -0.26389753997166127, 0.3422209996997129,
            -0.1010328628403087, 0.013227359555359997, 0.08167223632040917,
            -0.23719836081815993
          ],
          [
            -0.4187022925104899, 0.022510546085380275, 0.3352410543636081,
            0.13933584128889334, 0.3551317108755254, -0.07469557341250994,
            -0.36236221047419787
          ],
          [
            0.2139275424989761, -0.4003593116830934, 0.11683215000747839,
            0.3571013471747496, -0.0940146342286735, 0.3913386482507912,
            0.1669980350832611
          ],
          [
            -0.08270508210162568, -0.2691106018341737, -0.13098826022167726,
            0.1615949599716519, 0.1875297033608607, 0.23632402934498026,
            -0.2883436384565369
          ]
        ]
      },
      {
        "inputs": [1, 0, 1, 0, 0, 1, 0],
        "outputs": [1, 1, 0, 0, 0, 1],
        "biases": [
          -0.26875414197223657, -0.09134075332887101, 0.27057845018050636,
          0.29828949844658564, 0.3160710613203347, -0.38563350036535277
        ],
        "weights": [
          [
            0.34153456120955344, -0.3749524264215157, 0.33023244225095416,
            0.24374884343992362, -0.3645233267492602, -0.257225583764621
          ],
          [
            0.06600900190147718, -0.05042981246113827, -0.47021253965861454,
            -0.07063049702335908, 0.25307772729171185, 0.23314828269286436
          ],
          [
            0.22404249340763147, 0.3377233506948341, -0.3001996741447714,
            -0.3106958472055742, -0.1166824301502395, 0.44651295423835435
          ],
          [
            -0.1693812321705407, 0.4747071868058464, -0.11612588820957484,
            0.532729025088271, 0.3765584546729746, 0.0873678009405406
          ],
          [
            -0.38536702715164617, -0.17071127545271936, -0.04311331163358662,
            0.2912104211213136, -0.12514332664050404, -0.026395401537071865
          ],
          [
            -0.11002478549157027, 0.2963063932853967, -0.3229577719917142,
            -0.23046982156108578, -0.2615904941460844, -0.16756103240843961
          ],
          [
            -0.1420212403747583, -0.17273368626013713, -0.12428441851133029,
            0.025089785420698812, -0.3652843495919294, 0.052315370809677283
          ]
        ]
      },
      {
        "inputs": [1, 1, 0, 0, 0, 1],
        "outputs": [0, 1, 1, 0, 1],
        "biases": [
          0.2544391304322222, 0.20634951618491354, -0.2406354178293042,
          0.5163583990951459, -0.21803551985246278
        ],
        "weights": [
          [
            0.29472655257766733, -0.0955235603961248, -0.12190473434962368,
            -0.29129862633429743, 0.5667079499476586
          ],
          [
            -0.4040496611033361, 0.15764058150279867, 0.19998918161519263,
            0.09805819984618813, -0.22425096743929365
          ],
          [
            -0.07052350453823174, 0.357197332545759, -0.017197862709616075,
            0.1750841293685743, 0.3001884140299495
          ],
          [
            -0.16699842101539042, -0.1612530708061785, -0.07842487192700087,
            -0.08397863037902872, -0.37050541006733617
          ],
          [
            -0.07555919539469974, 0.12913028352779005, -0.13831361892816801,
            0.5640472562037578, -0.08686274245371463
          ],
          [
            0.07547487364576648, 0.6026879214979161, 0.178291155574502,
            0.09344678970065876, -0.1294796465287732
          ]
        ]
      },
      {
        "inputs": [0, 1, 1, 0, 1],
        "outputs": [0, 1, 1, 1, 1],
        "biases": [
          0.6865228280780693, -0.18098428462277888, 0.3723299813402664,
          0.12816875318128845, -0.2730092598872565
        ],
        "weights": [
          [
            -0.12072285188337117, -0.21809562670584395, -0.3318380129299024,
            0.09155962308222508, -0.14839369809291128
          ],
          [
            0.13326330577855586, 0.34012513630651936, 0.4928481019621793,
            0.14230322071810303, 0.28861961377637846
          ],
          [
            -0.42877806686969766, -0.0745379100542366, -0.2113456671638642,
            0.2185532761509986, 0.23115203664131648
          ],
          [
            -0.006063444507714266, -0.416187256166914, 0.5252261237926209,
            -0.16052357195725891, -0.10180784568880419
          ],
          [
            0.1769740597518684, -0.386935596833413, 0.2746894496625815,
            0.027410861235929868, -0.2211755640803281
          ]
        ]
      },
      {
        "inputs": [0, 1, 1, 1, 1],
        "outputs": [0, 1, 1, 1],
        "biases": [
          -0.0758771558602108, 0.4505162128724782, -0.43956155501464234,
          0.24703959892292052
        ],
        "weights": [
          [
            -0.011579332267681083, 0.46063988568353564, 0.1875761383679241,
            0.04953530173687942
          ],
          [
            -0.21043579935612872, 0.25067878728528126, -0.09657423261596824,
            0.30918421228797743
          ],
          [
            0.03353355859946557, 0.4349372529958434, 0.518874184535127,
            0.41350366798676247
          ],
          [
            0.002892598516328365, -0.08536771249739529, -0.3968999139246694,
            0.37042195045724136
          ],
          [
            0.0882772430722444, 0.09380360623853164, 0.21781303338457467,
            0.347196157812108
          ]
        ]
      },
      {
        "inputs": [0, 1, 1, 1],
        "outputs": [1, 1, 1, 0],
        "biases": [
          -0.32950035688015045, -0.5516421143652392, 0.4755520776405553,
          -0.2690027686174952
        ],
        "weights": [
          [
            0.14825381375965804, 0.08053007963129893, -0.10265477804676318,
            0.05912835441361414
          ],
          [
            -0.2823542588935808, 0.368751678596545, 0.3522912973568137,
            -0.48114488306992664
          ],
          [
            0.36569166909668693, 0.18104931600653812, 0.036678434236385164,
            -0.33387016223727883
          ],
          [
            0.2520853135678398, -0.21102291293823933, 0.2842588195311053,
            -0.3187705805803324
          ]
        ]
      }
    ],
    "diff": 0,
    "date": "2022-09-15T17:28:45.060Z"
  },
  {
    "version": 171,
    "score": 228.7794398802104,
    "mutationFactor": 0.75,
    "mutationIndex": 1,
    "levels": [
      {
        "inputs": [
          0.7588417513971574, 0.8392570949935529, 0.8601920755265628,
          0.8522935087763641, 0.8055957654164875, 0.6112957593785375, 0, 0,
          0.05066480943929652, 0.950000000000001
        ],
        "outputs": [0, 0, 1, 0, 1, 1, 0, 0, 0],
        "biases": [
          -0.055368459445477886, 0.7816476073504208, 0.2879015232181469,
          0.37316516261787513, -0.6625373260193108, 0.6763976362625779,
          -0.021518879254102112, -0.2912721767072031, 0.711566194728818
        ],
        "weights": [
          [
            -0.23021262587261923, -0.15831247317217284, 0.19783932222031353,
            0.5705950148824535, -0.4217788505184895, -0.14624107106606044,
            -0.5011198952309357, 0.3076405283851274, 0.4720957645154272
          ],
          [
            -0.3244297789594399, -0.5631546580526183, -0.05989584612937149,
            -0.5873062695946581, -0.0496238061512133, 0.3593698792378174,
            0.41097786700922156, -0.485189456119328, -0.6097340183181285
          ],
          [
            0.3108341729344015, -0.6750380567356704, -0.7956794154671185,
            -0.5528318148825156, 0.4466830628269311, 0.6505751757050314,
            -0.7166499688995993, -0.010787979926750953, -0.6819143850800823
          ],
          [
            0.07772500288689883, -0.45496621137120824, 0.7634782577648865,
            -0.04193285146645992, 0.3457649729195582, 0.3871204586172459,
            0.6085599740633907, -0.36484392008882954, -0.42701441109644267
          ],
          [
            -0.3329065360076634, -0.5819981766279411, 0.003167034585439543,
            0.4759432736124678, 0.1380929287743809, 0.27445071463011017,
            -0.08177586133549264, 0.4284171361365329, 0.38408737833285495
          ],
          [
            -0.4964331816786332, -0.2705259191637154, -0.1977612082376326,
            -0.3759340835045689, 0.6674383940116384, 0.11096796235592511,
            -0.27378895657866403, 0.1161965865767774, -0.6261517652855547
          ],
          [
            -0.5820896549444113, -0.18851310773223917, 0.37678236270544296,
            0.7882434968490817, -0.6673748012806977, -0.25191003623221775,
            0.23919596235468718, 0.32669751487457044, 0.08853980929363933
          ],
          [
            -0.6597696655818267, 0.7900779569715368, -0.6423286683009862,
            0.6693611347573941, 0.22941682082393186, -0.2845260351703064,
            0.5629851552616831, -0.6081028581664127, -0.5357555172008764
          ],
          [
            -0.7037337376633072, -0.20388783637951097, 0.6534499311204048,
            0.609155383909855, 0.4634657437799854, -0.34013630407273565,
            -0.20492776778824146, 0.11149828129755501, -0.4782532615936974
          ],
          [
            0.32589965920054553, 0.10585676129154964, 0.48503520888637297,
            -0.5055938327833246, -0.22599919705073163, 0.11973421977248333,
            -0.6537802194761008, -0.58338926641305, 0.12172747062041521
          ]
        ]
      },
      {
        "inputs": [0, 0, 1, 0, 1, 1, 0, 0, 0],
        "outputs": [1, 0, 0, 0, 0, 1, 0, 1],
        "biases": [
          -0.27162515874492443, -0.22293563334677596, -0.22054207916848162,
          0.07306036312057332, 0.6550111385136903, -0.032235514343707194,
          0.5694070577265881, -0.907084364098775
        ],
        "weights": [
          [
            0.3495267034530918, 0.12123216004597243, -0.17980993079747043,
            -0.7275143408506864, 0.3416395553711633, 0.24820682443367292,
            0.23186048869726783, 0.7260297720190566
          ],
          [
            0.8209073431451259, 0.6806200643028177, 0.062387024306617855,
            0.11381268813766945, 0.30487839164458297, -0.6121274856463497,
            0.07829681004596989, 0.3220069714353069
          ],
          [
            -0.6209676527559675, 0.2942765847715361, -0.5733388826782337,
            -0.339387986422944, -0.31775205214172914, 0.0950438546097062,
            -0.5436075007001613, 0.23794396683771551
          ],
          [
            0.354413912601777, 0.2550785873762772, -0.38031558584167574,
            -0.3855414516150322, -0.20076749345579104, 0.47319338113913845,
            0.5374095769768652, 0.6086872978329365
          ],
          [
            -0.007732261622959813, -0.29395450884413366, -0.14685588901987284,
            0.027695048502736914, 0.16617635354082022, 0.022490541059733082,
            0.5783173769868843, 0.3103395540713687
          ],
          [
            0.581145209899264, -0.6045994812834069, 0.2561931504351097,
            -0.09639053593306396, 0.4292661602700978, -0.01340937100533357,
            0.4034970491928076, -0.1533479692722668
          ],
          [
            -0.3217236868999577, 0.34971735635619783, -0.37511262235678633,
            0.6578794283306681, -0.04728993556385552, -0.20310653702909132,
            -0.579995404195478, 0.2857941466038604
          ],
          [
            -0.7489994468836227, 0.4185927398364032, 0.42163599432719145,
            -0.21551463857403838, -0.08180150329000097, -0.5900012443001871,
            0.6135765171275961, -0.6119038814204214
          ],
          [
            -0.603710222569717, 0.4855995319814075, -0.15966678958857283,
            0.06552892488400705, 0.5017209482051045, -0.15736141270167492,
            0.19601138894738745, 0.5165627381610782
          ]
        ]
      },
      {
        "inputs": [1, 0, 0, 0, 0, 1, 0, 1],
        "outputs": [0, 0, 1, 1, 1, 0, 1, 1],
        "biases": [
          -0.1412227387326499, 0.8539113274494903, -0.519988696355784,
          -0.6420675667796858, 0.08213538621511302, -0.27918578560130547,
          0.3868583655712653, -0.4896367739918994
        ],
        "weights": [
          [
            -0.7739409452981239, 0.45924325243457714, 0.45071418288516785,
            0.313439197368837, 0.5287553413076105, -0.10496201776095737,
            0.41233754327429306, -0.24776144264533917
          ],
          [
            -0.6550496826535397, -0.624417467546674, 0.7489654413715956,
            0.4759235381311029, 0.3002175265509813, 0.29284677179575597,
            -0.2541205065295739, 0.2295702210769382
          ],
          [
            -0.5958774836252068, 0.0017196416364714529, 0.6462524636148321,
            0.5730297418942287, 0.46392960259884086, -0.6299734226416638,
            -0.05982768298552166, -0.6517055227977353
          ],
          [
            -0.5811255225786934, 0.5297564461182234, -0.2641309108505042,
            -0.3004637254724203, -0.6822264236774566, -0.10328402227816899,
            0.6182656110917653, -0.4608981221604225
          ],
          [
            0.7517632228852253, -0.06169158512861039, -0.16429712954377274,
            0.1673999506648826, 0.6566271084951885, -0.2631944831459131,
            0.07982471727987184, -0.6018908180969397
          ],
          [
            -0.6651415921735853, -0.6260586675842461, -0.20335298563514648,
            0.440040954139058, 0.1154094473253458, -0.2366287258656976,
            0.7257644573607858, -0.00786728369558079
          ],
          [
            -0.6461079599468893, 0.25358249491046403, 0.3012173515350335,
            -0.02121213519790724, 0.4100084713456488, 0.16102376825374926,
            -0.7806772394469341, 0.47023687794447633
          ],
          [
            0.23303953955800816, -0.3771133630317187, 0.21001080072520056,
            -0.6788032606748382, -0.5110559352812281, -0.3259764180439306,
            0.5853665119629166, 0.7565258083661489
          ]
        ]
      },
      {
        "inputs": [0, 0, 1, 1, 1, 0, 1, 1],
        "outputs": [0, 0, 0, 1, 0, 1, 0],
        "biases": [
          0.34292696594190697, -0.46031137558689594, -0.08330219442503203,
          0.10516772103631153, 0.16992831654942264, -0.20051643098441035,
          -0.5297945577755869
        ],
        "weights": [
          [
            -0.3274105506914886, 0.2654396108317668, -0.3789823435981403,
            -0.2751265338251194, 0.5259377501855581, -0.009516335821131372,
            0.11050538807675431
          ],
          [
            0.522547256358173, 0.24318491654868674, 0.6965062828498799,
            -0.07981445178505725, 0.6669270014378024, -0.10164832465999174,
            -0.37891291415916295
          ],
          [
            0.26175426926557266, 0.07012132525778689, -0.6128366966352634,
            0.27673827474194707, 0.5697904902291354, 0.44635860425356594,
            0.5676616777154266
          ],
          [
            0.6061415197046872, 0.5182199792303827, 0.3118504412491624,
            0.5721194907519123, 0.07203113570342876, -0.34250645514993844,
            -0.5709555672106743
          ],
          [
            -0.6235815481883311, -0.5815894690812305, 0.31824775695055635,
            -0.09489503951532044, -0.7242446727234891, 0.5650764246442506,
            -0.09178770940444081
          ],
          [
            0.388015335869075, 0.054614208022384814, -0.6291048115743765,
            0.002570155735233781, 0.6781559299369163, -0.02750762695163178,
            0.18707887886665753
          ],
          [
            -0.6030379363126497, -0.1303034995130702, -0.5930987492692639,
            0.2886187529338473, -0.495338905806963, -0.5771268079332288,
            -0.1423244991645385
          ],
          [
            -0.5946871346346074, -0.3391014564695606, -0.07858704585817425,
            -0.5852932831660782, -0.7131218192507736, 0.5113663133393892,
            -0.45918432131626413
          ]
        ]
      },
      {
        "inputs": [0, 0, 0, 1, 0, 1, 0],
        "outputs": [1, 0, 1, 0, 1, 1, 1],
        "biases": [
          -0.03016616309785914, 0.34970246319044, -0.30501165799822505,
          0.10059811761260384, 0.42182014906592236, 0.257598727278025,
          -0.3413587239701652
        ],
        "weights": [
          [
            0.5946773299098681, 0.6052975734018191, -0.23242067381554776,
            0.06112055618937948, 0.6222258896892314, -0.07346296519263211,
            -0.1670984345490887
          ],
          [
            0.22327458573210457, 0.7458059303957404, -0.628942776823211,
            0.04071554702362255, -0.33273036548821133, 0.15876002031158903,
            0.45496266901677124
          ],
          [
            -0.6237919623325561, -0.18877770649655284, 0.33288431073830543,
            0.027009147349606688, 0.23092176708963896, -0.17673547272933332,
            -0.531073410081626
          ],
          [
            0.5032215053060695, -0.5160523055343346, 0.3460237240180055,
            0.5120188752927883, 0.4773507431568994, 0.522664535009043,
            0.5292079809089097
          ],
          [
            -0.13464241145015715, 0.031039261054566947, -0.6573870846065069,
            0.008195153502939895, -0.11050016802973966, 0.3397567797670455,
            0.49909381766880007
          ],
          [
            0.2476362622613641, 0.4460716919421058, -0.36672012152394684,
            -0.6527136424699919, 0.2858930027897705, 0.40895713949589424,
            -0.28033796668260075
          ],
          [
            -0.40902924462318035, -0.5423347124590604, 0.5945860341539189,
            0.4584422956667479, -0.6198712593862137, -0.1363807558806613,
            -0.5514534349572014
          ]
        ]
      },
      {
        "inputs": [1, 0, 1, 0, 1, 1, 1],
        "outputs": [1, 1, 0, 0, 0, 1],
        "biases": [
          -0.6974793308593941, 0.5815449779311146, 0.4442659541469725,
          0.5817376775490097, -0.11646139827563884, 0.1256708743301363
        ],
        "weights": [
          [
            0.5809107609765345, 0.3245225237618111, -0.06554516387129172,
            0.32797204810649305, -0.7639833883705742, -0.26761641018521354
          ],
          [
            0.12075126709702538, 0.0677499651816986, -0.39759662401566315,
            0.1732472592412739, -0.16386670401611902, 0.45536598320842764
          ],
          [
            0.31302099836778896, 0.41135293386320226, -0.4366811864450418,
            -0.33696531573748645, 0.27928104125772746, 0.56612357905704
          ],
          [
            0.668932087666085, 0.5139503570123909, -0.42949064119780955,
            -0.4658848572785894, 0.2112131544447412, 0.5072880481767379
          ],
          [
            -0.6413052256823023, 0.4040693473111612, 0.28265200569815424,
            0.08310979801974666, -0.37838541031043726, 0.6271011319137703
          ],
          [
            0.3762496631322414, 0.7400837324955583, -0.6208764201613439,
            -0.1608573371245771, -0.4362650456068733, 0.6234096711359958
          ],
          [
            0.13929213701371215, -0.3903079101535927, 0.6605139921884657,
            0.12260577531958755, 0.3550946344560217, 0.36937917654910635
          ]
        ]
      },
      {
        "inputs": [1, 1, 0, 0, 0, 1],
        "outputs": [1, 1, 0, 0, 0],
        "biases": [
          -0.5035271422487404, 0.2629427727373455, -0.7460149533493645,
          0.6632639455258955, 0.23394363417174718
        ],
        "weights": [
          [
            0.06625872853981493, 0.7078445405142993, -0.018341869806778016,
            -0.03920334867160152, -0.3099876615084709
          ],
          [
            -0.8217188122491679, 0.5982746635296581, -0.6905227315947727,
            -0.5807338223696009, 0.24661286285068437
          ],
          [
            -0.2461112844877369, -0.21307437685845565, -0.12531993299961908,
            -0.46340839673550005, 0.6432599648094892
          ],
          [
            -0.09505283248036742, -0.3059433755133044, -0.31039386882359243,
            0.461773023333241, -0.3902103229549344
          ],
          [
            -0.27990435618722376, -0.1137527175881694, 0.4618221086328245,
            -0.5896477260609719, -0.3431135944709447
          ],
          [
            0.5450756725520574, 0.7117102317618388, -0.5411957137528476,
            0.21109333118083462, -0.7367309212050537
          ]
        ]
      },
      {
        "inputs": [1, 1, 0, 0, 0],
        "outputs": [1, 1, 1, 0, 0],
        "biases": [
          0.06825583019030046, -0.5049603627062225, -0.6512923094630204,
          -0.12834258553520594, -0.2417813991272953
        ],
        "weights": [
          [
            -0.2840740904068133, 0.6894473425482489, 0.5108059895676345,
            -0.40802553708986766, -0.7224450557369084
          ],
          [
            0.3761097437205551, -0.3686501529173026, -0.29227329254523204,
            -0.06205492321217332, -0.4132220240382648
          ],
          [
            0.3681949475983025, -0.3864951990067472, 0.07209551839337944,
            -0.47602029412425584, 0.056132337094261464
          ],
          [
            0.5707038800109551, -0.5875956875657, -0.2942599070141316,
            0.3423154301024079, -0.36952471450014557
          ],
          [
            -0.3021037419404152, -0.09426707031365139, -0.3318722815660749,
            -0.44425665807968573, -0.6502732832674434
          ]
        ]
      },
      {
        "inputs": [1, 1, 1, 0, 0],
        "outputs": [0, 1, 1, 0],
        "biases": [
          0.4873529154900048, 0.13187556764084662, -0.22403890567412316,
          -0.013520120573850408
        ],
        "weights": [
          [
            -0.7308214847348696, 0.8177302060938576, -0.028154615738817945,
            -0.2716574968807653
          ],
          [
            -0.7346447746949405, 0.4403797144838958, 0.6215671750038163,
            0.542392147587421
          ],
          [
            0.504015911763387, 0.2454081599827068, 0.2622312645813173,
            -0.34035100244685706
          ],
          [
            0.4230075293143951, -0.16049894110343027, -0.258675908607185,
            0.45999779445636946
          ],
          [
            0.6377484319347566, -0.48341644752174645, 0.04360450671172311,
            -0.6068593058538518
          ]
        ]
      },
      {
        "inputs": [0, 1, 1, 0],
        "outputs": [1, 1, 0, 0],
        "biases": [
          -0.46575479551916293, -0.6178438921358893, -0.04612729949881733,
          0.5268932335375729
        ],
        "weights": [
          [
            -0.3466350005465867, 0.11023602638334075, 0.45268313776029523,
            0.31515747765591046
          ],
          [
            0.20276747920664645, -0.3233783201137581, 0.25279479827115797,
            -0.1289485296539108
          ],
          [
            0.4886228693053304, 0.04524976920892865, -0.5233453334409636,
            -0.08420798304550825
          ],
          [
            -0.08969824436733753, 0.047978662319650145, -0.1640953532391754,
            -0.4937527611513861
          ]
        ]
      }
    ],
    "diff": 0,
    "date": "2022-09-15T17:28:45.060Z"
  }
]
