{
  "generation": 0,
  "score": 1367.3056869841516,
  "levels": [
    {
      "inputs": [
        0.6984493342561702, 0.7891760494649027, 0.3381445973012833, 0, 0,
        0.8045384578966057, 0.8924457177665353, 0.9040855755304099,
        0.8770072164211331, 0.6840642484134958, 0
      ],
      "outputs": [1, 0, 1, 1],
      "biases": [
        0.11621290811418206, 0.49344495534190935, -0.9333989086467449,
        0.9217320106267466
      ],
      "weights": [
        [
          0.08769432639873731, -0.47831778458569163, -0.9638004774546727,
          0.13779851028480428
        ],
        [
          -0.1491856631819335, -0.1997190460824667, -0.7258548348915244,
          0.2009412914084181
        ],
        [
          -0.32190396227535345, 0.016700101379531596, -0.6835446391157389,
          0.8782022844901936
        ],
        [
          -0.5456297669958765, 0.5693442845949952, -0.46615464369105597,
          -0.9466291569340202
        ],
        [
          0.24514171283676234, -0.12677050526824418, -0.8668923660410734,
          0.8469940597647452
        ],
        [
          -0.2820647596133039, -0.5478540525630162, 0.7702521092034011,
          0.3945678265633221
        ],
        [
          0.3311078496889195, -0.21679008321104476, -0.9315290982985185,
          -0.20770477325176095
        ],
        [
          -0.5192617623736746, 0.129229016993198, 0.48909093774491463,
          0.21513049825958275
        ],
        [
          0.5398058593696664, 0.45873687057954404, 0.015238045121208632,
          -0.6280045315174392
        ],
        [
          0.7846360895800681, -0.17414077904373615, 0.5237465638832037,
          0.9936316810231758
        ],
        [
          0.43191398254420266, -0.5174242354604348, 0.7081039698627487,
          -0.8150293968673998
        ]
      ]
    }
  ]
}
