[
  {
    "version": 7,
    "score": 12733.073190758894,
    "mutationFactor": 0.05,
    "mutationIndex": 68,
    "levels": [
      {
        "inputs": [
          0.7067529006676875, 0.6997725290536103, 0.6211557702653288,
          0.31669482303189567, 0, 0, 0.1932944723577893, 0.36460007629726765,
          0.3822903159050258, 0.9983333333333334
        ],
        "outputs": [1, 1, 0, 1, 0, 0, 1, 1],
        "biases": [
          -0.2378969586039011, -0.20592468436683922, 0.24822017690155423,
          -0.38107097097226555, -0.12356256316981398, -0.4465877189728003,
          -0.06300823927888047, 0.25257946704402534
        ],
        "weights": [
          [
            0.20782388944036123, 0.21663401868141202, -0.0837388481737265,
            -0.042065440892410426, -0.33265407718180107, -0.09598273746338801,
            0.3003062984079281, -0.041486226840938216
          ],
          [
            -0.1966565785506274, 0.024060372968803007, -0.09947821317662865,
            0.07726424523341979, -0.4549435014659229, -0.5866949873362096,
            0.040874760168544993, 0.13013400040997608
          ],
          [
            -0.27477848748045774, 0.19611175095184405, -0.054844927848916564,
            0.0034409204716655747, 0.2504723539169827, -0.19953714323444116,
            0.2936089583761338, 0.1791911891802607
          ],
          [
            0.22805897486037208, -0.20671584779672453, -0.1859231018278038,
            -0.2333807050631188, 0.006975137172597401, -0.45808933516222095,
            0.1816363400241874, -0.07681515625717726
          ],
          [
            -0.002705019943088839, -0.4276327063864768, -0.18380580640402022,
            -0.601676558265881, -0.6932783047084916, 0.21492924586634116,
            0.05847327219509137, -0.15764016838106681
          ],
          [
            0.32349286744489253, 0.11250745934852177, 0.5456796987047826,
            0.06144290113867266, 0.6072468779638938, 0.03464719339735523,
            0.22318694826283808, 0.41128522521575106
          ],
          [
            0.09288822566287608, 0.36253729967947806, 0.3787907566687786,
            -0.3279839936039583, -0.10159534694092318, 0.0704352821416134,
            -0.4956087422451613, -0.03355622379563769
          ],
          [
            -0.006615766779516245, 0.31734366159970373, -0.3584114820270821,
            0.38261306670084755, -0.3465075065611806, 0.1118045572223278,
            0.08166154156895589, -0.039833551243401294
          ],
          [
            -0.12773703431270172, -0.2145790795452354, -0.14330758937947902,
            0.19411099104670865, 0.19134853517378772, -0.05015039711128949,
            -0.06286368199493902, 0.09521061554427597
          ],
          [
            0.2749421338767725, 0.37611076741889393, -0.08818914254516984,
            -0.10973866485946966, -0.47752866175764047, 0.26074807662128147,
            0.0053087469406611285, 0.16120856917098805
          ]
        ]
      },
      {
        "inputs": [1, 1, 0, 1, 0, 0, 1, 1],
        "outputs": [0, 0, 1, 0, 0, 0, 1],
        "biases": [
          0.5200480678306976, -0.3551916756324338, 0.03224815070091754,
          -0.041153315717109645, -0.27633879772894576, 0.2199803071066416,
          -0.4977170870666243
        ],
        "weights": [
          [
            -0.45828141183929, -0.025836771748451934, 0.1934510302320163,
            -0.060015543677192425, -0.4459963386150075, 0.13842347055672471,
            -0.21905769222053204
          ],
          [
            0.10730132181587643, 0.007043918464755564, 0.11496079580644324,
            0.48809037319793275, -0.23097047912294258, -0.07475162343580469,
            -0.2409450888195182
          ],
          [
            -0.5752239968180997, 0.07784271971615107, -0.3362839140757827,
            0.3075111295878613, 0.3560314573721757, 0.19309531906315067,
            -0.0013695909482477411
          ],
          [
            0.41405080930811117, -0.4616463768872368, -0.28759610959507576,
            -0.27252337494221673, 0.39596404870781277, -0.331270135814277,
            -0.03883840106095028
          ],
          [
            -0.005389136900005958, 0.12435313218116725, 0.0970717460639957,
            -0.38002396645678355, 0.5207238765109434, 0.1723129119800181,
            -0.45819436125913793
          ],
          [
            -0.3587863823180755, 0.024641165782572944, 0.1834459949005983,
            0.42341814499725206, 0.3189785232682956, -0.13992025562278138,
            0.023035014256792642
          ],
          [
            -0.38583329330198135, -0.05732063666537998, 0.38606746011978654,
            0.058409379801019734, 0.1852636787800864, -0.023414284319459314,
            0.2744629384272688
          ],
          [
            0.09078747681719679, -0.20217722929497295, 0.47628730424959004,
            -0.3957715972743384, -0.29777133377650333, -0.3994336579521091,
            -0.179855323479654
          ]
        ]
      },
      {
        "inputs": [0, 0, 1, 0, 0, 0, 1],
        "outputs": [1, 1, 0, 1, 1],
        "biases": [
          0.2114702082070818, -0.37417808249114176, 0.028004604367172795,
          -0.3042631553832769, -0.18343080557550642
        ],
        "weights": [
          [
            -0.4901686518796813, 0.10247359727309036, -0.13663083160747483,
            -0.23105070108047523, -0.5843535762042578
          ],
          [
            0.23463402193472863, 0.05617743535745321, 0.16538529875718722,
            0.23684823799389312, -0.26692110696887034
          ],
          [
            0.4987841248026884, -0.27027102319371615, 0.17322112933381117,
            -0.193408920563777, 0.004809008406302065
          ],
          [
            -0.33188617971771084, -0.0516413275958449, 0.29617648156448495,
            -0.37536558514728, -0.31532927044836284
          ],
          [
            0.18012000697232425, 0.09630357559870749, 0.07499241688038057,
            0.48424906789544436, -0.27731290406057174
          ],
          [
            0.07444678338927085, -0.15255451707920553, 0.007001123825358024,
            -0.35956079776989475, 0.13273503616697102
          ],
          [
            0.3761034048942672, 0.6353172807072565, -0.33322153176284347,
            -0.09282168914573373, -0.026116153060481095
          ]
        ]
      },
      {
        "inputs": [1, 1, 0, 1, 1],
        "outputs": [1, 0, 1, 1],
        "biases": [
          -0.5689605183534199, -0.1127618805972199, -0.1755906926995801,
          -0.19842353938446564
        ],
        "weights": [
          [
            -0.03289914074435861, -0.21049882738067627, -0.4387738042374501,
            -0.3121474941031908
          ],
          [
            -0.04371921502967702, 0.3661574697918357, 0.17824500124925147,
            0.28990303652276195
          ],
          [
            -0.08045015906727182, 0.08026398540501772, -0.35594228049524024,
            -0.2692027822122216
          ],
          [
            0.40233702371391833, -0.1612617172191854, 0.3726992899151078,
            -0.29810571785212453
          ],
          [
            -0.40489981401445385, -0.20168262615130672, -0.02732508140357466,
            0.5023508580978634
          ]
        ]
      }
    ],
    "diff": -868,
    "date": "2022-09-15T09:09:03.423Z"
  },
  {
    "version": 7,
    "score": 12727.653094591124,
    "mutationFactor": 0.05,
    "mutationIndex": 12,
    "levels": [
      {
        "inputs": [
          0.7195632933171978, 0.7133080955142348, 0.6389184975145417,
          0.3515182605777949, 0, 0, 0.1740131700612183, 0.3506607843598657,
          0.36966467260196867, 0.9983333333333334
        ],
        "outputs": [1, 1, 0, 1, 0, 0, 1, 1],
        "biases": [
          -0.2483608641537612, -0.22918781666642488, 0.28824694444949706,
          -0.41454046631991487, -0.10575995797609056, -0.3942069052687952,
          -0.12370646394368062, 0.19126881934424314
        ],
        "weights": [
          [
            0.16190780701224405, 0.20151998154248027, -0.11460799814312325,
            -0.04490239396665346, -0.36761710725635155, -0.07607482836530165,
            0.33904616923386355, -0.04829487746049928
          ],
          [
            -0.1678361726775005, 0.00046359775113686413, -0.029923643080501605,
            0.0484076677268919, -0.49528841334867363, -0.5151132246890493,
            0.08982859731179761, 0.06059617166924042
          ],
          [
            -0.34511442620785, 0.24445518316042897, -0.023549604113308052,
            0.05739097569514167, 0.21534120882021082, -0.1778845985473051,
            0.32523152017094187, 0.13776172038111434
          ],
          [
            0.2587362260716332, -0.24484582985287667, -0.15879157170770358,
            -0.22313639268799687, 0.04375867692732637, -0.40089704726650566,
            0.19129057877310687, -0.11122584992928633
          ],
          [
            -0.06732179002987072, -0.35884781607303606, -0.20601059241788958,
            -0.6194565648188847, -0.6883341195373202, 0.20255412912337847,
            0.056674991427068507, -0.09695356406387379
          ],
          [
            0.38147123612791456, 0.11529514936132046, 0.5187299322692224,
            0.15146321348158232, 0.6065940868412852, -0.048129853366991264,
            0.21658290007895037, 0.42616511878304847
          ],
          [
            0.16006233141951895, 0.3435939292389363, 0.37199957398124844,
            -0.32539334965406375, -0.09288753833100893, 0.024080983324918086,
            -0.43559253544136417, -0.02724972972793842
          ],
          [
            0.011669790372203644, 0.2767180514323794, -0.37088465577672,
            0.42745475573476016, -0.2969381018022481, 0.11765672338162494,
            0.12522341774342818, -0.10587126388894107
          ],
          [
            -0.1941968757430639, -0.18855906208303136, -0.10359221944038477,
            0.21712208967836602, 0.1672023314052462, 0.015735771670562004,
            -0.05556295565043726, 0.10925352609053529
          ],
          [
            0.3115499929096702, 0.3599763577654347, -0.0423686924793551,
            -0.1490801363827383, -0.48168807569571637, 0.2267352257903367,
            0.01210113285549854, 0.22640427264920585
          ]
        ]
      },
      {
        "inputs": [1, 1, 0, 1, 0, 0, 1, 1],
        "outputs": [0, 0, 1, 0, 0, 0, 1],
        "biases": [
          0.5774736862446821, -0.3008037657550246, -0.0017729355175884268,
          -0.01693363755744076, -0.29489962029544436, 0.25984642857101165,
          -0.46220851813165537
        ],
        "weights": [
          [
            -0.538123799970445, -0.04299558126452065, 0.23358591118343272,
            -0.030664025586691103, -0.4195486350123591, 0.06863936893041622,
            -0.22282057470493216
          ],
          [
            0.09186093967911207, 0.07699353204307227, 0.12613678813001158,
            0.511650990449256, -0.2655693361215716, -0.07913575458898071,
            -0.20425907152983405
          ],
          [
            -0.5579235087980408, 0.08720505923260585, -0.32310874237186,
            0.37832572330138997, 0.2790488652161249, 0.1797093124322342,
            0.020580076458178137
          ],
          [
            0.40932302707132057, -0.549284973877251, -0.3339148240060123,
            -0.23442936736685008, 0.3823423189050302, -0.2757437997307569,
            -0.03611988304708752
          ],
          [
            0.06325105812098555, 0.11736954515556505, 0.019867410989722247,
            -0.3707831566108308, 0.5123276155228487, 0.1752766827998512,
            -0.4955447407633772
          ],
          [
            -0.3032386950592402, 0.04287338642708796, 0.20873386732054577,
            0.42916219566858366, 0.31682831840727493, -0.18170887715280634,
            0.06279933113705896
          ],
          [
            -0.41232737292366684, -0.05684094911059723, 0.3571620032616239,
            0.03846433663182819, 0.09309399362648357, -0.07361970714617502,
            0.2366370644333199
          ],
          [
            0.060833333476262755, -0.25925169591034614, 0.48046667838246504,
            -0.40281858803930776, -0.21558766626428807, -0.3473643377403082,
            -0.16568457850608279
          ]
        ]
      },
      {
        "inputs": [0, 0, 1, 0, 0, 0, 1],
        "outputs": [1, 1, 0, 1, 1],
        "biases": [
          0.19310711855838028, -0.34783602997735136, 0.029535843109738863,
          -0.3320139593105449, -0.19080671796344567
        ],
        "weights": [
          [
            -0.48256874380470055, 0.16431091329060588, -0.12252214937730768,
            -0.19746855175893022, -0.5894552143208195
          ],
          [
            0.20182458034679446, 0.00462401700761325, 0.23067363640909305,
            0.2618131477049894, -0.3012630093548229
          ],
          [
            0.5127997134362043, -0.17836969037091574, 0.19716472659555292,
            -0.1579090163488729, -0.01503203300774648
          ],
          [
            -0.33967571652786865, -0.10486490669817294, 0.2895197150046563,
            -0.34547776203042563, -0.2845913821827835
          ],
          [
            0.10382811347878884, 0.06762965509587565, 0.13744801365099168,
            0.4356450463416388, -0.32935151829051507
          ],
          [
            0.06144697344546768, -0.17648486598232832, 0.047600291363517004,
            -0.33864962458283954, 0.12360940369214199
          ],
          [
            0.39480846201163233, 0.5647679084061424, -0.3074783650779524,
            -0.07477969530578331, -0.07788978372084279
          ]
        ]
      },
      {
        "inputs": [1, 1, 0, 1, 1],
        "outputs": [1, 0, 1, 1],
        "biases": [
          -0.540510138015325, -0.05748591839274776, -0.1502027844006093,
          -0.19697737960127953
        ],
        "weights": [
          [
            0.0055784156798283704, -0.26088284393863426, -0.4479686864542222,
            -0.3183397018512765
          ],
          [
            -0.010108587332652408, 0.3606924188334464, 0.19595671857450492,
            0.3558308447807931
          ],
          [
            -0.09540607430342846, 0.03461901474608235, -0.35162756313648214,
            -0.28153525216766484
          ],
          [
            0.42043746503745094, -0.11054166417121963, 0.42246145778588506,
            -0.3008771315298646
          ],
          [
            -0.4050790396389458, -0.21768998774055914, -0.05032139002792846,
            0.5222816842896576
          ]
        ]
      }
    ],
    "diff": -868,
    "date": "2022-09-15T09:09:03.423Z"
  },
  {
    "version": 7,
    "score": 12720.816559882247,
    "mutationFactor": 0.05,
    "mutationIndex": 36,
    "levels": [
      {
        "inputs": [
          0.7087910150222778, 0.7008106206754598, 0.6207425419287351,
          0.3087690018801523, 0, 0, 0.19662565583456182, 0.364326769163549,
          0.37985051455881924, 0.9950000000000001
        ],
        "outputs": [1, 1, 0, 1, 0, 1, 1, 1],
        "biases": [
          -0.1851664242450754, -0.22521790436092992, 0.2358170540942154,
          -0.4321071291976528, -0.10437516696215124, -0.4662936958952463,
          -0.08002423360172958, 0.2571041607946788
        ],
        "weights": [
          [
            0.19329949386394008, 0.20010626089500969, -0.09437006516307218,
            -0.04539572166048649, -0.3695554849192102, -0.09694408794551188,
            0.3852711331908408, 0.005623019161473314
          ],
          [
            -0.2007695048318885, -0.04270996347778529, -0.049335546508059144,
            0.04936974208434795, -0.4409690883901417, -0.5624681848315695,
            0.0482613600469563, 0.0754675807395391
          ],
          [
            -0.289975124169147, 0.1740350666490251, -0.020630128587073016,
            0.09310819561922926, 0.17115912125603627, -0.23362052674470737,
            0.30180813685150243, 0.19206619947706324
          ],
          [
            0.18408091293905235, -0.19080930572907465, -0.1773441020799924,
            -0.21772474296155855, 0.054904611699057776, -0.40572520227122666,
            0.15560918781159838, -0.16371677727250278
          ],
          [
            0.008368363852119972, -0.35550106379258933, -0.21435957376294276,
            -0.5689628186395285, -0.6519258109801755, 0.1301036182916588,
            0.06759873364163352, -0.09162864896682066
          ],
          [
            0.33878593644377725, 0.0982751936728445, 0.49963062782337564,
            0.07298010190786575, 0.5582730310496832, -0.028316161137004962,
            0.16166746249517902, 0.42489998846991384
          ],
          [
            0.0992454851711623, 0.35735786043624673, 0.33882142681970323,
            -0.3576977708273443, -0.09188706464557075, 0.07236044856031083,
            -0.5063960984258056, -0.01865486201089577
          ],
          [
            0.047025377948652705, 0.32241077931678636, -0.3417305413268016,
            0.40805528802486474, -0.36572683778362863, 0.177956608649811,
            0.13360325858398014, -0.06263555799692654
          ],
          [
            -0.14933748908088917, -0.15194876464032633, -0.11185756703485213,
            0.16718015881779721, 0.23621737236960522, -0.0012544367701835205,
            -0.04375887218773356, 0.09184727254011396
          ],
          [
            0.3253606377610445, 0.3868009955679365, -0.09331486999751758,
            -0.14430227297572465, -0.5050855610332403, 0.19016202853940262,
            0.09125456086480406, 0.23371273649175733
          ]
        ]
      },
      {
        "inputs": [1, 1, 0, 1, 0, 1, 1, 1],
        "outputs": [0, 0, 1, 1, 1, 0, 1],
        "biases": [
          0.595876500238663, -0.338044060687595, -0.022913937619141435,
          -0.03854347302796558, -0.2592424838307495, 0.24242667237381474,
          -0.4711572755510903
        ],
        "weights": [
          [
            -0.4500420785245921, -0.04856929916132506, 0.19878830259530364,
            -0.05381216205439039, -0.3822495728789077, 0.12209058693658491,
            -0.22820138388975383
          ],
          [
            0.1428646358522022, 0.04855669382553353, 0.18344822344480216,
            0.4370541345281643, -0.2721042971106597, -0.12395803901372261,
            -0.2173656872767379
          ],
          [
            -0.5922929085092342, 0.026672586080626712, -0.2998497998903035,
            0.2817548620676466, 0.287043599006359, 0.26769883775269804,
            -0.027878764696549516
          ],
          [
            0.39404043147414575, -0.4690363933028606, -0.3552331065339608,
            -0.19402692014784434, 0.3818507454434259, -0.2520257033406396,
            -0.04432782968978245
          ],
          [
            0.01274472460771085, 0.1605549101814509, 0.0416237579029262,
            -0.3087053237941782, 0.43701459474436705, 0.22042267659784912,
            -0.44511050518818374
          ],
          [
            -0.30733056206248427, 0.09587717496143758, 0.14238737239897617,
            0.438542725966205, 0.33872518687454406, -0.11874302574181089,
            0.0018419594558476207
          ],
          [
            -0.4001258257681598, -0.0478878132476403, 0.3679320725933152,
            0.0679044840047649, 0.12925063573240847, -0.008624291570975995,
            0.28695059338518314
          ],
          [
            0.024886703223978537, -0.26881439816246994, 0.47643345469236414,
            -0.39955165678936727, -0.2064824023530277, -0.3459252660796713,
            -0.19515644455096537
          ]
        ]
      },
      {
        "inputs": [0, 0, 1, 1, 1, 0, 1],
        "outputs": [1, 1, 1, 1, 0],
        "biases": [
          0.17487407969803168, -0.32597308107681006, 0.06601825900767158,
          -0.3098887973254835, -0.2083918919698862
        ],
        "weights": [
          [
            -0.5000308395297973, 0.17756925554311934, -0.0855371295447111,
            -0.2437608207037063, -0.618341265715682
          ],
          [
            0.20072305382894517, 0.05079374719370548, 0.1972755783058299,
            0.17306251046322296, -0.2875438266812226
          ],
          [
            0.46075401968954866, -0.2480033181533562, 0.17220761152733946,
            -0.132115753774995, -0.05609251222351049
          ],
          [
            -0.2882422792792478, -0.11940085201916516, 0.32371764500224304,
            -0.3959677673628863, -0.27372619986858243
          ],
          [
            0.1305779459629383, 0.028193796265080902, 0.12059021639575668,
            0.513756789155994, -0.2502904066031878
          ],
          [
            0.05529844424400783, -0.17391089545459829, -0.02226485339919626,
            -0.3496463501599354, 0.11023905607498445
          ],
          [
            0.3696830568021735, 0.5911198009842918, -0.3391869817315343,
            -0.11425394517776852, -0.10882813166624623
          ]
        ]
      },
      {
        "inputs": [1, 1, 1, 1, 0],
        "outputs": [1, 1, 0, 0],
        "biases": [
          -0.6261766861007312, -0.06313584920621462, -0.15428757351418734,
          -0.17510714995460638
        ],
        "weights": [
          [
            -0.010770961636028423, -0.2713365685600818, -0.40554404232246677,
            -0.31969485413069876
          ],
          [
            -0.0015884518261518599, 0.38362381427905806, 0.15858905566722464,
            0.28804115544889963
          ],
          [
            -0.02181407455183311, 0.01397590844235154, -0.40432510394110704,
            -0.19976018267330636
          ],
          [
            0.40747809093366777, -0.1314584261789498, 0.39045746480024074,
            -0.26475340891933036
          ],
          [
            -0.3883237286375982, -0.15676877927137978, -0.011592581965340031,
            0.5425037869105257
          ]
        ]
      }
    ],
    "diff": -868,
    "date": "2022-09-15T09:09:03.423Z"
  },
  {
    "version": 7,
    "score": 12718.072430902203,
    "mutationFactor": 0.05,
    "mutationIndex": 69,
    "levels": [
      {
        "inputs": [
          0.7185865158090387, 0.7107463276205378, 0.6331252952827129,
          0.3304436455248475, 0, 0, 0.18467918294271202, 0.35450386046959925,
          0.369988406987094, 0.9983333333333334
        ],
        "outputs": [1, 1, 0, 1, 0, 1, 1, 1],
        "biases": [
          -0.17689186413404492, -0.2329275588611064, 0.25543496977688435,
          -0.4382568726471637, -0.10665127465954548, -0.41771287928895473,
          -0.12188971200437704, 0.2097575021574017
        ],
        "weights": [
          [
            0.25013855353990505, 0.26789465278734326, -0.08116883215920023,
            -0.06148434620235935, -0.3515337221187269, -0.03061105693091999,
            0.37612186770931244, -0.006558185230615913
          ],
          [
            -0.2117561218075589, -0.010435342547295928, -0.08844103162529827,
            0.03514942327860197, -0.4996853730915111, -0.5588145858855871,
            0.11113076416486975, 0.1287859483595916
          ],
          [
            -0.3630372995300235, 0.16812471678269986, 0.02855396784640126,
            0.06312968926099378, 0.18481389884851204, -0.20248935867817064,
            0.31717101698922434, 0.17077374108026183
          ],
          [
            0.18436702763884033, -0.18335288782741296, -0.16942304748973525,
            -0.2325360381924457, 0.059123831002671524, -0.4560405156072715,
            0.21154395107464302, -0.08129986601292324
          ],
          [
            0.02347180279828046, -0.3733375941703295, -0.19373708992051533,
            -0.5859846157600197, -0.6635116668268943, 0.1988034086137791,
            0.03809130364421713, -0.08773508458697885
          ],
          [
            0.3886632124564889, 0.1077952880471757, 0.4814208190393494,
            0.0927348295405943, 0.5620476644220675, -0.0413900943679639,
            0.2541892798191746, 0.3951200856053493
          ],
          [
            0.17573913791970208, 0.349844879542276, 0.3246019440054013,
            -0.31276657574168687, -0.12393963445001666, 0.02613848844759275,
            -0.4251277394352305, -0.07027055870274648
          ],
          [
            0.01821060608223773, 0.2848591191191236, -0.3925803553094988,
            0.43048667417084996, -0.36139145358353547, 0.10590700820302293,
            0.054986710589482034, -0.0784233007668868
          ],
          [
            -0.1954828561703978, -0.14713704436709385, -0.11795334737940466,
            0.18549998291521486, 0.21133883479866875, -0.013098901147988406,
            -0.044839749724670266, 0.15185634763728667
          ],
          [
            0.29660518616058695, 0.34286590787289334, -0.051441647283562715,
            -0.11941459364447618, -0.5180700862871633, 0.24786263812464415,
            0.09879371099216339, 0.21288133699347447
          ]
        ]
      },
      {
        "inputs": [1, 1, 0, 1, 0, 1, 1, 1],
        "outputs": [0, 0, 1, 1, 1, 0, 1],
        "biases": [
          0.5658646201556551, -0.2893420544064665, 0.010851833642357433,
          -0.01504501056305875, -0.2920709057336133, 0.2661222101284457,
          -0.45176858947734494
        ],
        "weights": [
          [
            -0.49958884386862107, -0.046581080427589724, 0.1753908126856002,
            -0.026907890144777062, -0.4207085358300255, 0.09534064311956557,
            -0.19815833118909473
          ],
          [
            0.0650154107963737, 0.05496406339308443, 0.18044985724984886,
            0.4913267905885696, -0.25188258515668505, -0.06699463857140692,
            -0.2806085776570635
          ],
          [
            -0.5212770590772395, 0.05655229724364014, -0.3687668029296798,
            0.3388207124480539, 0.36806325316652755, 0.2266461347929522,
            -0.03959968990675716
          ],
          [
            0.3871218358563597, -0.5405838913215735, -0.3127321260431585,
            -0.20423699173737542, 0.4183614121775316, -0.3211567680058658,
            0.019623946825292664
          ],
          [
            0.012949166515586058, 0.15854180430396425, 0.041097578704424986,
            -0.38266440290298553, 0.437602520130688, 0.1939262720025547,
            -0.5099623612651767
          ],
          [
            -0.32196042050453577, 0.012512925656641798, 0.1313765485566503,
            0.44102081010569055, 0.3487933870535102, -0.12090835644866485,
            -0.004138883154940352
          ],
          [
            -0.37181390780218804, -0.015345858891958376, 0.32283413479378575,
            0.054779411613436496, 0.14475121048877235, -0.002010400357464026,
            0.26953212227276957
          ],
          [
            0.04958375538569709, -0.2568609212641575, 0.45251466556937225,
            -0.41268908060368475, -0.25563609233912626, -0.363391006536931,
            -0.14390457666051415
          ]
        ]
      },
      {
        "inputs": [0, 0, 1, 1, 1, 0, 1],
        "outputs": [1, 1, 1, 1, 0],
        "biases": [
          0.24961832917302454, -0.33011277613476214, -0.007102609014631105,
          -0.3160146429963782, -0.18390104102463914
        ],
        "weights": [
          [
            -0.4379916603052907, 0.13135390557540297, -0.12418119721375623,
            -0.1755311219135014, -0.5982316447863173
          ],
          [
            0.21759359080342083, 0.05243646216998821, 0.19545502462168768,
            0.18438636724079926, -0.29996546852190026
          ],
          [
            0.5075546508225047, -0.2073895849084366, 0.12803052138644366,
            -0.16978287538278186, 0.030197430326967326
          ],
          [
            -0.30634991365008357, -0.059223168518792946, 0.28112098739294467,
            -0.3551214749941242, -0.34035883209029516
          ],
          [
            0.12576717510774696, 0.09164005839217702, 0.12144994983336233,
            0.4439434190670894, -0.2590401330857633
          ],
          [
            0.10554898361308701, -0.09276789745016575, 0.02602595163447625,
            -0.3433657383113621, 0.0671953939032591
          ],
          [
            0.4134543948013786, 0.6405086579108311, -0.2931050282602839,
            -0.07189641108170726, -0.06806815745451233
          ]
        ]
      },
      {
        "inputs": [1, 1, 1, 1, 0],
        "outputs": [1, 1, 0, 0],
        "biases": [
          -0.5744388606059387, -0.046664464039656024, -0.20330862800477184,
          -0.21735339660928685
        ],
        "weights": [
          [
            -0.029578452926447167, -0.21075404290206518, -0.42672262700710245,
            -0.3207893784992571
          ],
          [
            0.012050452578798401, 0.3399485501540822, 0.162353771206164,
            0.310638589926928
          ],
          [
            -0.0640319296844919, 0.034557269026745774, -0.360658231880898,
            -0.24184096981761238
          ],
          [
            0.4120757309324001, -0.1771539274397289, 0.405447102366884,
            -0.2687296964623236
          ],
          [
            -0.37328238340423353, -0.1781591237319602, -0.07528492749262819,
            0.4981275861905189
          ]
        ]
      }
    ],
    "diff": -868,
    "date": "2022-09-15T09:09:03.423Z"
  },
  {
    "version": 7,
    "score": 12717.388379623231,
    "mutationFactor": 0.05,
    "mutationIndex": 61,
    "levels": [
      {
        "inputs": [
          0.7003953506515344, 0.6933021567143085, 0.6130538456692636,
          0.3023392317157133, 0, 0, 0.20136812482885047, 0.37106256539263616,
          0.3886497516310705, 0.9950000000000001
        ],
        "outputs": [1, 1, 0, 1, 0, 0, 1, 1],
        "biases": [
          -0.22524477650711877, -0.14782157374310695, 0.27449929143322355,
          -0.45314375182518635, -0.12683878660869832, -0.453523448869256,
          -0.10424199271760758, 0.21031405341860343
        ],
        "weights": [
          [
            0.21803980167918405, 0.2369018404094632, -0.1296597377481779,
            -0.07572903493497132, -0.37455101964829257, -0.06292267620440438,
            0.32522071766534566, -0.07542909897308346
          ],
          [
            -0.2150976793145692, -0.028081162251330956, -0.02454330791680817,
            0.06587603665632552, -0.46967250630998014, -0.5075639986303253,
            0.1307863137241866, 0.09072732836448393
          ],
          [
            -0.2820013474820531, 0.17107337600437753, 0.027878971075634515,
            0.04994044645484561, 0.21000317779916428, -0.27512937657400127,
            0.31898631268923616, 0.17655160390554014
          ],
          [
            0.1904174683612764, -0.20114726412197767, -0.10871753368351691,
            -0.17958880241074687, 0.05351047936086132, -0.4722850149324234,
            0.17608892864760098, -0.11520544455555876
          ],
          [
            0.0005556278954579642, -0.3627626295057307, -0.19554233401435483,
            -0.5767758825505238, -0.6419742041189813, 0.16846174755376458,
            0.042357969429403286, -0.12432335483344187
          ],
          [
            0.366344108669894, 0.041058913700292, 0.48584364297369376,
            0.13711061228877366, 0.6247019440271606, 0.03354602350804715,
            0.18497447761962524, 0.4642894310221664
          ],
          [
            0.13781572297150713, 0.3453232998522118, 0.3303561074979539,
            -0.302725247070954, -0.08562950047054174, -0.012933454415615352,
            -0.41872685672637655, -0.09784423791212021
          ],
          [
            -0.009493488934209864, 0.25567854382939426, -0.33796748465957954,
            0.34757895041666886, -0.3575241153422458, 0.18453786944775274,
            0.07260674317760141, -0.04603092485771424
          ],
          [
            -0.20034967015502728, -0.17939868350090196, -0.09023309853624781,
            0.16945044457126973, 0.1619398994317103, -0.052436268670068155,
            -0.09397942417858757, 0.07706305763272811
          ],
          [
            0.291986895955459, 0.3964649651155255, -0.0647350275631087,
            -0.14293978662379356, -0.46656989300534424, 0.2042323753054431,
            0.046272761696574724, 0.22692934347582913
          ]
        ]
      },
      {
        "inputs": [1, 1, 0, 1, 0, 0, 1, 1],
        "outputs": [0, 0, 1, 0, 0, 0, 1],
        "biases": [
          0.5909168234949083, -0.35528121201010615, 0.03279929356908077,
          -0.028161387995711988, -0.27945573812696434, 0.2550616637528712,
          -0.4800506332213983
        ],
        "weights": [
          [
            -0.4952070634381297, -0.07229563850424651, 0.17436344635008694,
            -0.08693320479229086, -0.4378062139019349, 0.12882090476321842,
            -0.17917895231376063
          ],
          [
            0.13426092618932986, 0.00932332706339483, 0.15217277103221388,
            0.5090720059341766, -0.2482266031544304, -0.07650126809002553,
            -0.2559582418302314
          ],
          [
            -0.5027054672874538, 0.01688697116430361, -0.358117114158692,
            0.343649994630237, 0.27650539446939904, 0.22088651643177562,
            0.012338246813944902
          ],
          [
            0.42774639575086715, -0.4741604391182679, -0.2923555811239068,
            -0.25514457826834264, 0.40915772015602647, -0.3142705365589453,
            0.019382385894663783
          ],
          [
            0.048080792218039445, 0.1763086242747403, 0.036632700585534514,
            -0.29132085474806585, 0.447038761178577, 0.1594979779121882,
            -0.41955733260267125
          ],
          [
            -0.3889680618468837, 0.0238450964691215, 0.2116376804334253,
            0.4049775888026107, 0.3313029231601679, -0.17546847210763827,
            0.05018962009431448
          ],
          [
            -0.320592376341125, 0.0018237152007504528, 0.33299869606203614,
            0.06690305201224955, 0.11150518380195694, -0.039099650318692114,
            0.2630952694537957
          ],
          [
            0.08242133831364944, -0.2095198215086675, 0.4802891843018679,
            -0.3968396632223029, -0.28786036964215583, -0.4252510509877317,
            -0.10664096366207085
          ]
        ]
      },
      {
        "inputs": [0, 0, 1, 0, 0, 0, 1],
        "outputs": [1, 1, 0, 1, 1],
        "biases": [
          0.17584701675476733, -0.328300766818797, 0.04511254997933951,
          -0.33401282484369815, -0.1820115542292604
        ],
        "weights": [
          [
            -0.5297241427110679, 0.09207474698546309, -0.13872546715878412,
            -0.17170220679026887, -0.6035702792878442
          ],
          [
            0.29481475447035377, 0.04201669671028007, 0.20821962875085154,
            0.23334049908903765, -0.2969639265450053
          ],
          [
            0.48451918878679034, -0.22591801291392954, 0.1639492167837694,
            -0.201722027499043, -0.028816263714293966
          ],
          [
            -0.33075584203297603, -0.12170596575650375, 0.30373006178637746,
            -0.37954351690312826, -0.3448350329736024
          ],
          [
            0.1136368478211486, 0.05318908756388377, 0.07199805704989533,
            0.4918645964796587, -0.32818214615112495
          ],
          [
            0.09093071647707714, -0.11478442502086542, 0.020201936462365722,
            -0.3229586033314773, 0.12620420532537785
          ],
          [
            0.3781530687761969, 0.6227104107808293, -0.2987760562015896,
            -0.12267244423582566, -0.0587716391542102
          ]
        ]
      },
      {
        "inputs": [1, 1, 0, 1, 1],
        "outputs": [1, 0, 1, 1],
        "biases": [
          -0.6372098713536554, -0.05446682549760866, -0.14367872322907152,
          -0.25304805845152367
        ],
        "weights": [
          [
            0.012758002860650916, -0.27314158228015367, -0.4381453039985853,
            -0.3168430184946489
          ],
          [
            -0.01632829446210793, 0.39482477932394533, 0.13118237155229864,
            0.3335213483391135
          ],
          [
            -0.04784443153349573, 0.03049827497495005, -0.3172198894887011,
            -0.2108027379937948
          ],
          [
            0.3764819594533004, -0.10810074434781472, 0.364089767039967,
            -0.257748580786292
          ],
          [
            -0.3469052503561431, -0.12428338735941769, -0.029618231544240595,
            0.5401347228640088
          ]
        ]
      }
    ],
    "diff": -868,
    "date": "2022-09-15T09:09:03.423Z"
  },
  {
    "version": 7,
    "score": 12717.28280433809,
    "mutationFactor": 0.05,
    "mutationIndex": 6,
    "levels": [
      {
        "inputs": [
          0.7049325672137745, 0.6968821783157697, 0.6158217755559263,
          0.30004874201567, 0, 0, 0.20143068491551308, 0.3682252333157311,
          0.38372640088320686, 0.9983333333333334
        ],
        "outputs": [1, 1, 0, 1, 0, 1, 1, 1],
        "biases": [
          -0.20036653614035085, -0.1516914318896533, 0.28576260026283634,
          -0.3815620776710455, -0.11888427362766754, -0.4241172831493389,
          -0.07177032978758041, 0.2576793254829373
        ],
        "weights": [
          [
            0.20167795695312382, 0.23886196626067366, -0.0909973324162412,
            -0.024002701074387088, -0.30963707071073465, -0.09463608385062158,
            0.37093989368173835, -0.05726067425837772
          ],
          [
            -0.1783937110603797, 0.041802009361971336, -0.038929948220824705,
            0.012606984630760813, -0.5133333770846371, -0.5126899795218409,
            0.0520920346620596, 0.1199497023848029
          ],
          [
            -0.3619137463232227, 0.23748128090028045, -0.008066204200522942,
            0.08315679293048586, 0.20319608626085228, -0.2104635792565868,
            0.2863029148297385, 0.18661458717848067
          ],
          [
            0.2188507219444893, -0.21410856389573268, -0.13049559137401742,
            -0.2673981718615362, 0.06977290828660988, -0.4728490680178576,
            0.1334451022093609, -0.09643514741325115
          ],
          [
            -0.04052336559448197, -0.39114937127290905, -0.23563067667912052,
            -0.5562074374718062, -0.6728836321814645, 0.17555276116774227,
            0.025457621815203762, -0.14832947955525477
          ],
          [
            0.34491334022276676, 0.08735033040517654, 0.5294117788850281,
            0.08909271032351132, 0.5568272927927257, 0.0013305980432496943,
            0.19367767809195444, 0.4649078169468878
          ],
          [
            0.09539167889863764, 0.2777034431230958, 0.3294252706057812,
            -0.297657854285334, -0.09033681295151438, 0.001586426118861773,
            -0.5125354511078103, -0.06302459444180157
          ],
          [
            0.014468438230828936, 0.25905798356693444, -0.3831120522174103,
            0.42952824246446825, -0.322130011261686, 0.15177774055389762,
            0.1158967511971206, -0.0718871760751208
          ],
          [
            -0.12328916029582816, -0.1704800988569956, -0.11551475318171478,
            0.23118761520457048, 0.18320357140874666, 0.022723679160816426,
            -0.027098090342977034, 0.15148252597060546
          ],
          [
            0.2816149407854368, 0.3273231260832868, -0.04990228497925789,
            -0.17234472727777486, -0.4997433535141596, 0.2083335396999112,
            0.08527394251616227, 0.22124759256308432
          ]
        ]
      },
      {
        "inputs": [1, 1, 0, 1, 0, 1, 1, 1],
        "outputs": [0, 0, 1, 1, 1, 0, 1],
        "biases": [
          0.5655967565838509, -0.36621228862769345, -0.031774574499197177,
          -0.03854730083820134, -0.3319143571525661, 0.2288989426221024,
          -0.44593684077961215
        ],
        "weights": [
          [
            -0.5340255026123524, -0.03388228595830096, 0.2647829545210166,
            -0.07410530043508126, -0.39324827497562387, 0.14440778555153794,
            -0.14107529340064068
          ],
          [
            0.1222964094349879, 0.09559356897721293, 0.11508367467976036,
            0.49192281904714347, -0.226796829208014, -0.09477219152144957,
            -0.25025269813536166
          ],
          [
            -0.5126770273680488, 0.02244670424961389, -0.3374680984166746,
            0.2883555589990715, 0.3004105718665162, 0.2547698180204854,
            0.009723118491169573
          ],
          [
            0.38909118817593413, -0.5059763572179778, -0.3444479518322181,
            -0.22076872574639414, 0.3784391499123198, -0.32837969862148153,
            -0.07092442784144767
          ],
          [
            0.07027805012426222, 0.12156456967672799, 0.051589519654056205,
            -0.36984638109931806, 0.5239628660556718, 0.1837939128427134,
            -0.4592395888643794
          ],
          [
            -0.300088485290582, 0.053423009649221115, 0.16087757619137488,
            0.36556363192911073, 0.2693541797855211, -0.13934607747182773,
            0.002129521869111972
          ],
          [
            -0.36915769721333425, 0.029056223117539224, 0.40357262453525494,
            0.04574796123304071, 0.1674927472476474, -0.040159573089100745,
            0.2747123210850572
          ],
          [
            0.07169367008630587, -0.280313739998613, 0.4313738225325542,
            -0.3730875153952418, -0.29808538944513274, -0.3516316305699583,
            -0.19095110269792864
          ]
        ]
      },
      {
        "inputs": [0, 0, 1, 1, 1, 0, 1],
        "outputs": [1, 1, 1, 1, 0],
        "biases": [
          0.2312274397000814, -0.33752178106696307, 0.07691863066545163,
          -0.3418033376088897, -0.24997054802614452
        ],
        "weights": [
          [
            -0.47042158702619047, 0.08820607043518118, -0.12683798150359,
            -0.24900944777434972, -0.5726469346230618
          ],
          [
            0.29496973808792687, 0.057459514031999316, 0.18961696647292486,
            0.17320596721041392, -0.2971731961222008
          ],
          [
            0.48313092963549664, -0.2519544721981068, 0.19636478655000666,
            -0.1303118457072798, -0.04502624606516047
          ],
          [
            -0.3236222337009453, -0.12110108929043405, 0.2556107379512538,
            -0.40310167725459617, -0.29886459586522607
          ],
          [
            0.17530214488213802, 0.005920206610735564, 0.1416899311003572,
            0.4391905165954554, -0.3095461348594202
          ],
          [
            0.03135656435892016, -0.1841051322139915, -0.025507552496724005,
            -0.3792718265915314, 0.1346871161105247
          ],
          [
            0.4025832918844458, 0.5712103453315118, -0.33304050741086566,
            -0.11932483006171651, -0.10794564790381189
          ]
        ]
      },
      {
        "inputs": [1, 1, 1, 1, 0],
        "outputs": [1, 1, 0, 0],
        "biases": [
          -0.5511660561097624, -0.042859810021380194, -0.15698807495275896,
          -0.20802175411132875
        ],
        "weights": [
          [
            -0.014575546582044832, -0.23762196377167707, -0.44039086312564335,
            -0.2946382447122396
          ],
          [
            -0.001612121912774045, 0.3919045812047186, 0.13354669969280364,
            0.3586466274671208
          ],
          [
            -0.08134234324933051, 0.09604179825269898, -0.38630157374823054,
            -0.21053817728158022
          ],
          [
            0.43637962992982887, -0.16891663878020455, 0.37052969439335537,
            -0.25934916441047584
          ],
          [
            -0.327003866274509, -0.19241722615251874, -0.02068270237400345,
            0.5548751554505054
          ]
        ]
      }
    ],
    "diff": -868,
    "date": "2022-09-15T09:09:03.423Z"
  },
  {
    "version": 7,
    "score": 12706.92489421772,
    "mutationFactor": 0.05,
    "mutationIndex": 38,
    "levels": [
      {
        "inputs": [
          0.696589549056208, 0.6886174801096725, 0.605850639985135,
          0.28399223065348767, 0, 0, 0.21061394629739016, 0.3762852812194504,
          0.3921857037614892, 0.9983333333333334
        ],
        "outputs": [1, 1, 0, 1, 0, 0, 1, 1],
        "biases": [
          -0.24938034919454904, -0.2376657323009709, 0.2380832287649504,
          -0.4052715544846986, -0.1654176240932972, -0.42987907085496596,
          -0.1464310399976567, 0.19229924250455163
        ],
        "weights": [
          [
            0.19001795228478127, 0.2514643080613499, -0.035960444272326,
            -0.037951185867484825, -0.38422983791744053, -0.03885287303658987,
            0.3433456663272875, -0.024076204268333193
          ],
          [
            -0.17230020288304357, -0.041754011784989324, -0.06821760178735595,
            0.08848687304772168, -0.4881995445781602, -0.5915182608292252,
            0.03864913412271061, 0.058133906815814373
          ],
          [
            -0.3248408808389028, 0.20986254444446434, -0.006228246432319062,
            0.06423749350280206, 0.1684186491594489, -0.18037362589417602,
            0.2501712277700898, 0.18814344392270238
          ],
          [
            0.23567764454418455, -0.1876024388472691, -0.1760349180057857,
            -0.2149350796281711, 0.08505380038046526, -0.4210926182232667,
            0.1477374400471271, -0.0698983234621037
          ],
          [
            -0.038042350812866416, -0.4026458515973234, -0.23737698308305558,
            -0.5941673580804487, -0.6865261571047242, 0.22402466786912456,
            -0.022391805183171437, -0.1670920181179103
          ],
          [
            0.38823277430477005, 0.11420329213049463, 0.526760370715198,
            0.1276466612436588, 0.6243511849321027, 0.026610715583629693,
            0.2356124882880199, 0.4485084650511255
          ],
          [
            0.08420411124477542, 0.3386109639329089, 0.3378529788826871,
            -0.37194789479789514, -0.14113967363268434, 0.03415931444899889,
            -0.4933490977840094, -0.04545907094133186
          ],
          [
            0.059959052173081874, 0.3216735751746355, -0.34395852668929344,
            0.3736307403696052, -0.32131006531331524, 0.09940455848350899,
            0.0879732539867118, -0.11543307943784488
          ],
          [
            -0.1485830487612759, -0.1412403066475034, -0.08358467809197638,
            0.1481722124630331, 0.19069584494288147, -0.004427732036022435,
            -0.04669787982279372, 0.1462521442623228
          ],
          [
            0.3157834020299169, 0.3441926555183935, -0.06209421669691003,
            -0.19716649467475855, -0.5015661466016239, 0.19031875462840878,
            0.08341674683747398, 0.16606931728402533
          ]
        ]
      },
      {
        "inputs": [1, 1, 0, 1, 0, 0, 1, 1],
        "outputs": [0, 0, 1, 0, 0, 0, 1],
        "biases": [
          0.6048703532106774, -0.27986646021941464, 0.04776545705200027,
          -0.05574354094530013, -0.2951365738982551, 0.21178295077836995,
          -0.5060738727512175
        ],
        "weights": [
          [
            -0.45076359639578467, 0.013351095996439674, 0.22803858559973852,
            -0.10743733236694725, -0.44753733670302237, 0.06335262178787832,
            -0.2091126786996344
          ],
          [
            0.08098266016444089, 0.06201194099940258, 0.156378306276294,
            0.4908120421304372, -0.30133914211542817, -0.09609405263978878,
            -0.2793184207071731
          ],
          [
            -0.5328836818840476, 0.004998441262363429, -0.3047388886260303,
            0.3538931450891993, 0.28267425825052633, 0.18688322000980787,
            0.00789706738030126
          ],
          [
            0.35651690498425276, -0.535445234587057, -0.29688178825956657,
            -0.2579265727947944, 0.37137312715899146, -0.2404872847402452,
            -0.023407113029500746
          ],
          [
            -0.013087648316478379, 0.1451788207087233, 0.04415954937408813,
            -0.3172119502205627, 0.4719816235208234, 0.17241170085007124,
            -0.4286537647104946
          ],
          [
            -0.369476782822663, 0.10083377695976026, 0.16725584491943532,
            0.44220672240303477, 0.26275964553493675, -0.16957915824120595,
            0.06819030293510449
          ],
          [
            -0.37116282044944127, -0.05394922263710808, 0.32686499840085087,
            0.026051948125480624, 0.08738638994268443, -0.04356018304777112,
            0.2721115333568901
          ],
          [
            0.01968519126494824, -0.2318638186473749, 0.4239999650207085,
            -0.4022375282510701, -0.23021228237376315, -0.36773992931195765,
            -0.15007984859217188
          ]
        ]
      },
      {
        "inputs": [0, 0, 1, 0, 0, 0, 1],
        "outputs": [1, 1, 0, 1, 1],
        "biases": [
          0.16052746188893366, -0.34879531392860597, 0.043222518539949115,
          -0.3170175904433322, -0.18766930004766788
        ],
        "weights": [
          [
            -0.5115853441639556, 0.13893907062711117, -0.11570924285264739,
            -0.16934085946904348, -0.555325304950289
          ],
          [
            0.2622181555766318, 0.004188739030778247, 0.21858154071764993,
            0.1898128132684601, -0.2991650226836332
          ],
          [
            0.46498041796775913, -0.2754907525165117, 0.18775934062092262,
            -0.1750826852782635, -0.026940666718232042
          ],
          [
            -0.30916948859545657, -0.10840799288682988, 0.24800837236694134,
            -0.35655296928512964, -0.3123886592447918
          ],
          [
            0.17610578095642515, 0.013661579416708251, 0.07700558071302205,
            0.48990025165765505, -0.3066976914842039
          ],
          [
            0.08104148721907817, -0.1465840735238916, 0.04795371730909226,
            -0.2841707908593081, 0.15194659412478148
          ],
          [
            0.40312319924549844, 0.5864812488889961, -0.36765777413860024,
            -0.05674866533953079, -0.03839796239436173
          ]
        ]
      },
      {
        "inputs": [1, 1, 0, 1, 1],
        "outputs": [1, 0, 1, 1],
        "biases": [
          -0.549739179817767, -0.04886767864468222, -0.20560766554383586,
          -0.20562791275076117
        ],
        "weights": [
          [
            -0.022365141797399728, -0.25598476086771466, -0.43738918375645663,
            -0.3065218818887566
          ],
          [
            -0.05321127355008104, 0.39489580980390687, 0.20985992376149817,
            0.3694577105691583
          ],
          [
            -0.07028140554588717, 0.1046910397579337, -0.3659630521189309,
            -0.23611376728792463
          ],
          [
            0.3451613209966135, -0.14441259828294847, 0.358750551295363,
            -0.30308205738795246
          ],
          [
            -0.40771745997562164, -0.2012649624787427, 0.003680720155659723,
            0.5524090338363074
          ]
        ]
      }
    ],
    "diff": -868,
    "date": "2022-09-15T09:09:03.423Z"
  },
  {
    "version": 7,
    "score": 12704.497792813081,
    "mutationFactor": 0.05,
    "mutationIndex": 43,
    "levels": [
      {
        "inputs": [
          0.7071764177189453, 0.7002126918113621, 0.6217218935586362,
          0.31775983828604026, 0, 0, 0.19270452184653242, 0.3641536107413421,
          0.38186983360466864, 0.9983333333333334
        ],
        "outputs": [1, 1, 0, 1, 0, 0, 1, 1],
        "biases": [
          -0.22428694815451394, -0.2365862882878776, 0.233651697947918,
          -0.4624082994063542, -0.12400653377999436, -0.40965983799366334,
          -0.10313156522741945, 0.202066486117083
        ],
        "weights": [
          [
            0.22328592792815039, 0.2510814017368584, -0.07499591344456513,
            -0.08192887403387314, -0.3577193415025273, -0.051528856728443304,
            0.29466343427806757, -0.08346667917325998
          ],
          [
            -0.23944994405026143, -0.0005955472815877758, -0.05063259207840961,
            0.031627754694069365, -0.48450349817998284, -0.5370602715181407,
            0.11234096632017578, 0.11612392976242057
          ],
          [
            -0.3285988815027348, 0.19095864738044843, -0.01816210928069456,
            0.06558245833388317, 0.26678792575186894, -0.22647168130123074,
            0.2866143219539972, 0.13290250909792262
          ],
          [
            0.18770882376419423, -0.20202139655931634, -0.10459391872829951,
            -0.20797935136568912, 0.02304843228355719, -0.4296184575688629,
            0.18105789555912946, -0.07046740799794662
          ],
          [
            -0.008231633531080619, -0.39735898687654975, -0.23358899110060027,
            -0.6157154009523772, -0.6293672708194428, 0.19171682244493612,
            0.05628962750331354, -0.08870341578300123
          ],
          [
            0.3844827530928773, 0.03838895028103868, 0.5074492301237893,
            0.14012508937248794, 0.6017312293838569, 0.003524160079897273,
            0.2594483195299482, 0.3920949789521834
          ],
          [
            0.16754032816603237, 0.2704095879293421, 0.3474665055260696,
            -0.36302049142349835, -0.1482577450612459, 0.04481913876472446,
            -0.49431156963392553, -0.05340496999415241
          ],
          [
            -0.018584145514321367, 0.25456398760242743, -0.3767609464709443,
            0.3674551482137148, -0.30395550892928785, 0.18325050216879785,
            0.07111916070513499, -0.13389172818214262
          ],
          [
            -0.14173062371192924, -0.14942860591213336, -0.13364656697551208,
            0.21923280883323992, 0.14514328571678367, -0.03739495865895964,
            -0.09848146175430386, 0.15280516610473302
          ],
          [
            0.2789575181034506, 0.41471070769961405, -0.06783318095264626,
            -0.13808302236237244, -0.4687015697284313, 0.2161195186962529,
            0.09423028533859679, 0.1807098402087391
          ]
        ]
      },
      {
        "inputs": [1, 1, 0, 1, 0, 0, 1, 1],
        "outputs": [0, 0, 1, 0, 0, 0, 1],
        "biases": [
          0.5101488168495589, -0.27430718945820803, -0.012074463394267466,
          -0.02191564312871365, -0.2897403267305622, 0.19388682504057647,
          -0.4487652777140005
        ],
        "weights": [
          [
            -0.49039529222997236, -0.05089150115353247, 0.21992169381499646,
            -0.09113469739917371, -0.4229399540649029, 0.11759457183385924,
            -0.2190738569253894
          ],
          [
            0.07796875676465387, 0.06552143967856748, 0.17596178318719954,
            0.5160180349055166, -0.2559560634022746, -0.0916900225837963,
            -0.2275068912330876
          ],
          [
            -0.49980164168757485, 0.003609281049350488, -0.29798799418887306,
            0.33410774313344566, 0.32424748913721, 0.245208413555494,
            -0.05110235827496562
          ],
          [
            0.3512381045688218, -0.536849203838376, -0.3531148215641243,
            -0.18289506375127218, 0.43820713124001925, -0.3346144590128222,
            -0.02814272255455924
          ],
          [
            -0.0213107748605655, 0.1275848231739776, 0.0121009150549648,
            -0.30445655481166706, 0.5296465108847062, 0.2104809127391093,
            -0.4685961338692256
          ],
          [
            -0.3931750288426477, 0.026526476828197205, 0.13776359098352264,
            0.38389779831157816, 0.284151220525774, -0.19056313920000487,
            0.06002936404653468
          ],
          [
            -0.34539165984906556, -0.05456091123039894, 0.3469520918032544,
            -0.009593703636145576, 0.08876201696242014, -0.016630011291813122,
            0.24662121962229605
          ],
          [
            0.0016141053953926746, -0.21427636989657067, 0.4583643490052444,
            -0.3412332595366697, -0.2147614480954165, -0.423865721379341,
            -0.1051575296566874
          ]
        ]
      },
      {
        "inputs": [0, 0, 1, 0, 0, 0, 1],
        "outputs": [1, 1, 0, 1, 1],
        "biases": [
          0.17839099099828903, -0.3678977009711638, 0.009912286987188393,
          -0.2823807803366283, -0.1894324765169998
        ],
        "weights": [
          [
            -0.4772096129750059, 0.18011217468021182, -0.11901445272938423,
            -0.17479449969615682, -0.6140755624471431
          ],
          [
            0.2977361194474936, 0.014717096760840648, 0.1975736933636181,
            0.1730710150920019, -0.30164525953302157
          ],
          [
            0.5213609126917914, -0.19108164404707342, 0.12330622619945303,
            -0.1925694157612454, -0.024939481937646356
          ],
          [
            -0.31467141234545853, -0.12013184399602905, 0.31517351299577984,
            -0.38135611927746116, -0.347924560378889
          ],
          [
            0.13512072466341526, 0.07401491894503992, 0.08312286464969108,
            0.522137653619482, -0.26904270181983236
          ],
          [
            0.017457014385483617, -0.11289495816295089, -0.013860436878345594,
            -0.3741749899195521, 0.09462202319982357
          ],
          [
            0.36806548634436664, 0.6005273143801144, -0.3661148906444059,
            -0.07473630882860079, -0.08784680163464971
          ]
        ]
      },
      {
        "inputs": [1, 1, 0, 1, 1],
        "outputs": [1, 0, 1, 1],
        "biases": [
          -0.568198732340211, -0.11619987032687022, -0.1807331675903828,
          -0.2548555431577916
        ],
        "weights": [
          [
            0.011146736606796409, -0.2108286861478217, -0.4549379414637678,
            -0.30841141177386144
          ],
          [
            0.0018733770114273372, 0.3754696388070228, 0.19781953124933072,
            0.31110896375746927
          ],
          [
            -0.02349242927268329, 0.08418010173492597, -0.3402860742481435,
            -0.2788631225894289
          ],
          [
            0.4156146617708215, -0.10786155382045833, 0.39150775006261757,
            -0.21754748550954367
          ],
          [
            -0.3423580402032347, -0.22132696869607188, -0.03128250609988146,
            0.554669869083896
          ]
        ]
      }
    ],
    "diff": -868,
    "date": "2022-09-15T09:09:03.423Z"
  },
  {
    "version": 7,
    "score": 2569.0507715134995,
    "mutationFactor": 0.05,
    "mutationIndex": 51,
    "levels": [
      {
        "inputs": [
          0.9153587424958318, 0.9155060488513957, 0.896710033742823,
          0.8260620831272204, 0, 0.857306577295738, 0.8087722963445769,
          0.13365169530360854, 0.17896152249858954, 0.9200000000000017
        ],
        "outputs": [1, 1, 1, 1, 0, 0, 1, 1],
        "biases": [
          -0.23267094793815418, -0.18712701713878668, 0.25042522281475577,
          -0.4445673119462152, -0.09606738958355654, -0.42602775960466877,
          -0.08522775767146643, 0.20840720382029898
        ],
        "weights": [
          [
            0.19472290645572515, 0.2076038868532645, -0.04227322680248746,
            -0.09209272123213452, -0.35475711611130195, -0.0186296239744548,
            0.29507134036533256, 0.005469571486059553
          ],
          [
            -0.20216113243046102, 0.022463011524205954, -0.03368020262244694,
            0.11039781819771538, -0.4655414903160371, -0.5180296129950359,
            0.10204418311658867, 0.12543124948139006
          ],
          [
            -0.27281685565997366, 0.17084837800626212, 0.028162569615869812,
            0.06266064965468601, 0.2676536778484121, -0.19457470381056274,
            0.23460080597907376, 0.12869677992651318
          ],
          [
            0.1812224359715696, -0.21533115246330498, -0.1588582520330524,
            -0.25111389487210856, 0.015629803338633987, -0.4507086913764493,
            0.14479391694735252, -0.12467108067714774
          ],
          [
            -0.05476094355571434, -0.3814324251633598, -0.19695542691813178,
            -0.5471105666711799, -0.698722061598205, 0.17833882224012465,
            0.03860970219681738, -0.08927578204777828
          ],
          [
            0.3900403540734919, 0.10174582134676131, 0.5162775584338031,
            0.07947335735192568, 0.6171142340459833, 0.03678273325827797,
            0.1637128676055641, 0.4522121494057307
          ],
          [
            0.13587713903217333, 0.35526274683451753, 0.3796994956911288,
            -0.3004543643850235, -0.15546562606495928, -0.010008098425120272,
            -0.4258325779200093, -0.06331032846518143
          ],
          [
            0.035791449339839077, 0.29454377679794885, -0.3480721294596756,
            0.36245216446563033, -0.3143205737804375, 0.13845684291082372,
            0.0945016403521754, -0.12406890141471058
          ],
          [
            -0.14632544291192298, -0.13292074093056824, -0.09304895712920269,
            0.20066524131568642, 0.18660460727596284, -0.027120047413043826,
            -0.044305300664818796, 0.10782750243132613
          ],
          [
            0.3329266277185119, 0.3449662168099327, -0.1284986347100907,
            -0.16959874517846632, -0.48052044592772847, 0.27791789234856484,
            0.02141050042452508, 0.25041822560950955
          ]
        ]
      },
      {
        "inputs": [1, 1, 1, 1, 0, 0, 1, 1],
        "outputs": [0, 0, 1, 1, 1, 0, 1],
        "biases": [
          0.5991384624164007, -0.28248967777606016, 0.007341595911888309,
          -0.053273747629406655, -0.35586354925051744, 0.2514528090829105,
          -0.4609089605188011
        ],
        "weights": [
          [
            -0.49428040131902007, -0.04103866320747833, 0.1727834281083453,
            -0.05096795809051163, -0.447918175314032, 0.07125319964941748,
            -0.21472581335458737
          ],
          [
            0.05784982285923173, 0.07051231418157741, 0.14102727933003006,
            0.4541336789962981, -0.2554050767453607, -0.07469155792438444,
            -0.22735823821492634
          ],
          [
            -0.5746194722623987, 0.029282674284932707, -0.3352878854131898,
            0.3546513943095698, 0.3169358600795403, 0.2131341656933912,
            0.024582826573391205
          ],
          [
            0.36506706158538244, -0.4665099499551782, -0.34172874098279465,
            -0.18426446624742224, 0.42245265901049633, -0.29987188924253544,
            -0.07638338071404895
          ],
          [
            -0.020832758105033405, 0.13812696592564508, 0.03381443397851376,
            -0.37838365486974856, 0.4898221238609253, 0.21927540692394362,
            -0.4742147896475668
          ],
          [
            -0.3826683290052254, 0.09207774990330875, 0.173050584040415,
            0.4385594047594289, 0.32254536254651806, -0.15745409360407256,
            0.067310910069482
          ],
          [
            -0.32014189241658664, 0.02142060368009827, 0.38448407126709594,
            0.07651072784078078, 0.15889469605580223, -0.03889378363538527,
            0.28775864207350105
          ],
          [
            0.06901956930181144, -0.21273255778356867, 0.4635830049766896,
            -0.3881172778463468, -0.23650923059490098, -0.34928147789036473,
            -0.15674849930277734
          ]
        ]
      },
      {
        "inputs": [0, 0, 1, 1, 1, 0, 1],
        "outputs": [1, 1, 1, 1, 0],
        "biases": [
          0.24873511352484454, -0.3383897836330572, 0.04567138604853211,
          -0.2808958877646783, -0.18638046135406602
        ],
        "weights": [
          [
            -0.49087578786890623, 0.08834256284362044, -0.15128236572000703,
            -0.21495670144495918, -0.5657338033180045
          ],
          [
            0.25189073662183714, 0.03647454522709774, 0.21153054818474556,
            0.20340233279042455, -0.28957124179994687
          ],
          [
            0.5023151682501318, -0.2766329977271237, 0.17691120726587845,
            -0.14239966302091717, 0.0199102429246853
          ],
          [
            -0.325794641668458, -0.08320751723249918, 0.24634170889999368,
            -0.3899428488715026, -0.3533367978194976
          ],
          [
            0.10645815720028295, 0.05739617705975618, 0.046022002994898004,
            0.49642771583962064, -0.2775535050146416
          ],
          [
            0.08979309585471669, -0.16047050364893867, 0.052431229745855214,
            -0.31292865249043833, 0.1309266591293594
          ],
          [
            0.39819958090016416, 0.5646821608240655, -0.3014346698166934,
            -0.1099541570071194, -0.11668863585734834
          ]
        ]
      },
      {
        "inputs": [1, 1, 1, 1, 0],
        "outputs": [1, 1, 0, 0],
        "biases": [
          -0.5737918879401688, -0.05953663104799449, -0.22573615295661334,
          -0.2565324599367698
        ],
        "weights": [
          [
            -0.03818295005405499, -0.24046384394978904, -0.42329142637998124,
            -0.2570872353226433
          ],
          [
            -0.029591569313910937, 0.3654205853522267, 0.126530575975678,
            0.34599241479541
          ],
          [
            -0.018540640945690856, 0.02241977404749415, -0.32293148589137444,
            -0.2720228179178521
          ],
          [
            0.41341943238044887, -0.17855593244628504, 0.3525265287668544,
            -0.2716358318095046
          ],
          [
            -0.32714204831005433, -0.13361126847646584, -0.012843035493140899,
            0.5042360239225403
          ]
        ]
      }
    ],
    "diff": -868,
    "date": "2022-09-15T09:09:03.423Z"
  },
  {
    "version": 7,
    "score": 2513.5106100587673,
    "mutationFactor": 0.05,
    "mutationIndex": 9,
    "levels": [
      {
        "inputs": [
          0.861091494702563, 0.8817800896900918, 0.8775206493169356,
          0.8430268199437261, 0.7064037330704069, 0.8021820108670169,
          0.7799844410968287, 0, 0.19132925781685495, 0.9533333333333344
        ],
        "outputs": [1, 1, 0, 0, 0, 0, 1, 1],
        "biases": [
          -0.21922762357013126, -0.15608373264465372, 0.2979289345064047,
          -0.4290479002198351, -0.14667582280859293, -0.44966217089929533,
          -0.11891010029707999, 0.17628970122034637
        ],
        "weights": [
          [
            0.19278292637733632, 0.2116428312891465, -0.05877701463124587,
            0.004359646947035417, -0.38253838632781234, -0.06577479039191605,
            0.349013122805682, -0.01862443057756136
          ],
          [
            -0.24801936412406062, 0.03386234767531688, -0.06938889249205803,
            0.059116127373662376, -0.5347734838089787, -0.5626776917450531,
            0.04356224478964511, 0.05502527673688776
          ],
          [
            -0.3277545549828711, 0.15824365526011822, -0.02699523585160889,
            -0.0038332679975213516, 0.2645488950359802, -0.18884623771598313,
            0.2767815528352049, 0.18602456231119815
          ],
          [
            0.25416037498227534, -0.23544925009728032, -0.1611108831821565,
            -0.23736250487050103, 0.008706483452881532, -0.4712435195287081,
            0.21812681204751824, -0.1548365799860198
          ],
          [
            -0.03566280282289828, -0.3454606695244604, -0.19992860421682437,
            -0.5285232088914504, -0.6275644988726464, 0.177765976235977,
            0.07320853626434426, -0.12124817766469581
          ],
          [
            0.3624191227280987, 0.050023409473115815, 0.5293369608739656,
            0.0625833581127776, 0.6507493320328644, 0.03779096485772338,
            0.1954676949597309, 0.4147743020043874
          ],
          [
            0.07934010563076127, 0.3115622112065676, 0.37110829802080797,
            -0.3759214819318527, -0.16380459730451125, 0.0693484052162581,
            -0.42272705427649426, -0.06088239013602599
          ],
          [
            -0.014717326056254795, 0.26534447719665943, -0.3904325614829471,
            0.3802569135091573, -0.31805719725425347, 0.09515532964413705,
            0.08184260664362158, -0.07279381869901982
          ],
          [
            -0.1885159087929145, -0.1582234230021229, -0.0893125598850912,
            0.16747488172656547, 0.19752857793730383, 0.011246966908473988,
            -0.0434649230473301, 0.11209409655921852
          ],
          [
            0.2510434204126593, 0.34156373624696035, -0.07849168883884991,
            -0.1525587854605136, -0.4909739955632968, 0.2768050578703579,
            0.09010903439545721, 0.18343172627415644
          ]
        ]
      },
      {
        "inputs": [1, 1, 0, 0, 0, 0, 1, 1],
        "outputs": [0, 1, 1, 1, 0, 0, 1],
        "biases": [
          0.5895079636305112, -0.2881384751471857, -0.02023889787148409,
          -0.03735542712154857, -0.3323785124747124, 0.26243758948150664,
          -0.47657386320949335
        ],
        "weights": [
          [
            -0.4580667459438863, -0.005647512843252708, 0.25670082610873696,
            -0.06369494477789589, -0.40987275309407895, 0.1450858694660059,
            -0.13434750236102458
          ],
          [
            0.13688363623562064, 0.07233035007831014, 0.1893729621748157,
            0.4921772892911423, -0.2534842452165734, -0.1354805619202894,
            -0.20152574160501976
          ],
          [
            -0.5790358122258549, 0.026090070592094214, -0.3030211710714703,
            0.37078816597177694, 0.2879736430104018, 0.25350752931897524,
            -0.031908123043033
          ],
          [
            0.33848077802188203, -0.45775087967468997, -0.33997931868005626,
            -0.27135076517013956, 0.37837977819267177, -0.3214225208402906,
            -0.04163012630532988
          ],
          [
            0.03707207387130175, 0.12870534816055662, 0.0291404478304921,
            -0.37978386373804823, 0.4522225621367395, 0.18093823894034003,
            -0.45265704400350426
          ],
          [
            -0.31406800416252034, 0.016663564269615017, 0.16724900191274444,
            0.347341197244393, 0.30898597113672954, -0.12310131323818133,
            -0.02565049563618613
          ],
          [
            -0.385694251304199, -0.025606265360478976, 0.37830459591239324,
            0.04064662085640916, 0.16580902584982377, -0.04296264628179383,
            0.23001890267584277
          ],
          [
            0.08402343669729154, -0.23225812798423445, 0.399494869228963,
            -0.3617684215292697, -0.2336251996137709, -0.35817466164559814,
            -0.19217799731121116
          ]
        ]
      },
      {
        "inputs": [0, 1, 1, 1, 0, 0, 1],
        "outputs": [1, 1, 1, 0, 0],
        "biases": [
          0.16940589077020562, -0.3424885385222423, 0.06069809413662447,
          -0.3082626885521856, -0.2179066664815814
        ],
        "weights": [
          [
            -0.5203892692078922, 0.1256820398079424, -0.1319493620546102,
            -0.17383227368110457, -0.5512444888134067
          ],
          [
            0.23873596372673694, 0.031175326296549573, 0.17587059919519304,
            0.26327702157694255, -0.3377386668088121
          ],
          [
            0.5349536435560266, -0.2723507309142575, 0.19684362094744134,
            -0.21827483251626073, -0.017796739625473047
          ],
          [
            -0.3404216398957988, -0.0577503504849447, 0.2744417217272619,
            -0.3740668261593097, -0.3553846454012085
          ],
          [
            0.16379033623256878, 0.013046637751285346, 0.047586743760641495,
            0.44376872694464725, -0.23517964864749227
          ],
          [
            0.05404624895873, -0.13400396948806878, 0.03996588391819644,
            -0.30239492000312734, 0.11761994270127478
          ],
          [
            0.408686499113676, 0.5895589875507097, -0.35628464057610826,
            -0.08956242007427467, -0.07353677836976416
          ]
        ]
      },
      {
        "inputs": [1, 1, 1, 0, 0],
        "outputs": [1, 1, 0, 1],
        "biases": [
          -0.6044100422312428, -0.04411595328090984, -0.157580349425617,
          -0.22068697989817174
        ],
        "weights": [
          [
            -0.015190042552274389, -0.2848218740356128, -0.43498664276639976,
            -0.2890474025788681
          ],
          [
            -0.032827730773917964, 0.40946628580955813, 0.1443512043775831,
            0.3633253441346654
          ],
          [
            -0.04393427459483923, 0.10043858329686342, -0.3281464820636847,
            -0.24469530445413304
          ],
          [
            0.40417260292132395, -0.1546252524825258, 0.39794707779144295,
            -0.2679983004011979
          ],
          [
            -0.36525902905379853, -0.1220449196048059, -0.018876166986055678,
            0.5587127313701855
          ]
        ]
      }
    ],
    "diff": -868,
    "date": "2022-09-15T09:09:03.423Z"
  }
]
