[
  {
    "version": 1,
    "score": 2015.872747732475,
    "mutationFactor": 0.5,
    "mutationIndex": 0.5,
    "diff": -2015.872747732475,
    "date": "2022-09-19T13:40:36.137Z",
    "levels": [
      {
        "inputs": [
          0.6984493342561702, 0.7891760494649027, 0.3381445973012833, 0, 0,
          0.8045384578966057, 0.8924457177665353, 0.9040855755304099,
          0.8770072164211331, 0.6840642484134958, 0
        ],
        "outputs": [1, 0, 1, 1],
        "biases": [
          0.11621290811418206, 0.49344495534190935, -0.9333989086467449,
          0.9217320106267466
        ],
        "weights": [
          [
            0.08769432639873731, -0.47831778458569163, -0.9638004774546727,
            0.13779851028480428
          ],
          [
            -0.1491856631819335, -0.1997190460824667, -0.7258548348915244,
            0.2009412914084181
          ],
          [
            -0.32190396227535345, 0.016700101379531596, -0.6835446391157389,
            0.8782022844901936
          ],
          [
            -0.5456297669958765, 0.5693442845949952, -0.46615464369105597,
            -0.9466291569340202
          ],
          [
            0.24514171283676234, -0.12677050526824418, -0.8668923660410734,
            0.8469940597647452
          ],
          [
            -0.2820647596133039, -0.5478540525630162, 0.7702521092034011,
            0.3945678265633221
          ],
          [
            0.3311078496889195, -0.21679008321104476, -0.9315290982985185,
            -0.20770477325176095
          ],
          [
            -0.5192617623736746, 0.129229016993198, 0.48909093774491463,
            0.21513049825958275
          ],
          [
            0.5398058593696664, 0.45873687057954404, 0.015238045121208632,
            -0.6280045315174392
          ],
          [
            0.7846360895800681, -0.17414077904373615, 0.5237465638832037,
            0.9936316810231758
          ],
          [
            0.43191398254420266, -0.5174242354604348, 0.7081039698627487,
            -0.8150293968673998
          ]
        ]
      }
    ]
  },
  {
    "version": 1,
    "score": 986.5499999999954,
    "mutationFactor": 0.5,
    "mutationIndex": 0.5,
    "diff": -2015.872747732475,
    "date": "2022-09-19T13:40:36.137Z",
    "levels": [
      {
        "inputs": [
          0.5443906933953986, 0.5324457876523047, 0.40821085004914703,
          0.8624941489412952, 0.8751250000000289, 0.8624941489412952,
          0.40821085004914703, 0.5324457876523045, 0.5443906933953987,
          0.9983333333333334
        ],
        "outputs": [1, 1, 1, 0],
        "biases": [
          -0.9360496743909148, -0.40887763258334386, -0.5937758828753656,
          0.5246428804875958
        ],
        "weights": [
          [
            -0.48865490051052207, 0.8866891189685626, 0.9899876850957461,
            -0.538858364516809
          ],
          [
            0.08950145428367362, 0.5854159543406481, -0.5736540639463716,
            0.5607762893035093
          ],
          [
            0.7615392358834772, -0.3369761832273097, -0.13008669484810742,
            -0.47478688438939587
          ],
          [
            -0.672355408244877, 0.32820266558272326, 0.03219486020859552,
            -0.8734607117435922
          ],
          [
            0.7115705751073587, -0.18919308769480248, -0.4062264106591966,
            -0.7783259827719302
          ],
          [
            0.9889234740193014, 0.059620236435998564, -0.09805821415555416,
            -0.3951047121146041
          ],
          [
            -0.3898164182701209, -0.5326401659796107, -0.10591530080488898,
            0.09133523896103934
          ],
          [
            -0.6547761355115131, 0.1318004646966746, -0.21489385462848354,
            0.1052266302027558
          ],
          [
            0.8458473731389788, -0.7170876813656433, 0.23734696775415065,
            -0.7349997500541563
          ],
          [
            -0.6858716981955486, 0.7132851654394776, 0.4090812868854745,
            0.7899736259633925
          ]
        ]
      }
    ]
  },
  {
    "version": 1,
    "score": 986.5499999999954,
    "mutationFactor": 0.5,
    "mutationIndex": 0.5,
    "diff": -2015.872747732475,
    "date": "2022-09-19T13:40:36.137Z",
    "levels": [
      {
        "inputs": [
          0.5443906933953986, 0.5324457876523047, 0.40821085004914703,
          0.8624941489412952, 0.8751250000000289, 0.8624941489412952,
          0.40821085004914703, 0.5324457876523045, 0.5443906933953987,
          0.9983333333333334
        ],
        "outputs": [1, 1, 1, 0],
        "biases": [
          -0.8169501956748286, -0.9333095399891578, 0.19433391766730512,
          0.3710392109669747
        ],
        "weights": [
          [
            0.67742830869024, 0.17795313131414803, 0.814493574389882,
            0.3067254664074506
          ],
          [
            0.5455962520415247, 0.725492654630651, -0.09942712419757482,
            -0.4391939860610754
          ],
          [
            0.9035486645694397, -0.6670416305378608, 0.4362462600096957,
            -0.05387451842252311
          ],
          [
            0.63065503977962, -0.9043746642807551, -0.517522125251999,
            -0.41054499655733867
          ],
          [
            -0.6084477261872658, 0.6931099014866433, -0.5729420520362813,
            -0.6950784240840107
          ],
          [
            0.9243991151334288, -0.7776704308335338, 0.834725857711522,
            0.40257102732014216
          ],
          [
            0.9007634316336257, 0.038594428667409364, 0.3792058892630146,
            0.30474533463903963
          ],
          [
            0.010494372690550424, -0.7900788220262389, 0.35486107216651375,
            -0.5250576627728529
          ],
          [
            -0.5262645063706519, -0.9236833959110644, -0.00598328340843457,
            0.9581738825437038
          ],
          [
            -0.28283694541737603, 0.9312239497540795, 0.23738341276255692,
            -0.8765992162684522
          ]
        ]
      }
    ]
  },
  {
    "version": 1,
    "score": 986.5499999999954,
    "mutationFactor": 0.5,
    "mutationIndex": 0.5,
    "diff": -2015.872747732475,
    "date": "2022-09-19T13:40:36.137Z",
    "levels": [
      {
        "inputs": [
          0.5443906933953986, 0.5324457876523047, 0.40821085004914703,
          0.8624941489412952, 0.8751250000000289, 0.8624941489412952,
          0.40821085004914703, 0.5324457876523045, 0.5443906933953987,
          0.9983333333333334
        ],
        "outputs": [1, 0, 0, 0],
        "biases": [
          -0.329808547356202, 0.77810466245396, 0.5486551378060711,
          0.8193931107069741
        ],
        "weights": [
          [
            0.5946415856798031, -0.6559120383070778, 0.7120204523276974,
            0.08801662588740777
          ],
          [
            0.6476148390302057, 0.007970296443725378, -0.4774734815503159,
            -0.19625195392889028
          ],
          [
            -0.8665224952652784, 0.11422198903947711, -0.40151123417283996,
            0.5336332379808617
          ],
          [
            0.15229323102999714, 0.8975199813194874, -0.7002145575794287,
            -0.4336613148804722
          ],
          [
            0.7158812782849941, -0.3736591898211823, 0.48303704556925187,
            -0.692250301494274
          ],
          [
            -0.48857763803068943, 0.5474690496970775, -0.14351083825723343,
            -0.18054991651318897
          ],
          [
            0.236923123774202, 0.10137879316339449, -0.9025284956897148,
            -0.009279967927320776
          ],
          [
            0.7748300001094837, -0.7423375275936421, -0.2029636746024588,
            -0.3554978179692587
          ],
          [
            0.9235844037115837, 0.8266790635816954, -0.25136059500811836,
            0.08912592886129911
          ],
          [
            -0.795288847262738, -0.9013994654916013, -0.6497773579572552,
            0.5768666058874414
          ]
        ]
      }
    ]
  },
  {
    "version": 1,
    "score": 365.13071906497584,
    "mutationFactor": 0.5,
    "mutationIndex": 0.5,
    "diff": -2015.872747732475,
    "date": "2022-09-19T13:40:36.137Z",
    "levels": [
      {
        "inputs": [
          0.877917083842415, 0.8914128503675738, 0.8828405579850955,
          0.8411057964113244, 0.6546261901415275, 0.18246342144804917, 0,
          0.04462299485349053, 0.19792280578827204, 0.9983333333333334
        ],
        "outputs": [1, 0, 0, 0],
        "biases": [
          -0.322522145530173, -0.7089909157865417, 0.40048903300818894,
          0.4420061548556178
        ],
        "weights": [
          [
            0.21548053670384615, -0.5455637835860534, -0.9880131183064824,
            -0.2685748578607403
          ],
          [
            0.8383018293926763, 0.11115580136604564, 0.6473805230718441,
            -0.7009669592312142
          ],
          [
            -0.7549472043521912, -0.8349473064473054, -0.9504320508361466,
            -0.8476967811332945
          ],
          [
            0.505689343077238, -0.11938771284145533, -0.36563375476096116,
            0.7072415305446729
          ],
          [
            -0.8765751081803499, -0.016406855849552482, -0.2820658294385936,
            0.7022686003505485
          ],
          [
            -0.13992025324118273, 0.4544320235671626, -0.29540954711528533,
            -0.6744998007075576
          ],
          [
            -0.26824341289802023, 0.24935791523643136, 0.5212800511868902,
            -0.35673187764391967
          ],
          [
            0.37184029768076243, 0.7646889949092008, 0.3642677970686705,
            -0.7859000375956264
          ],
          [
            0.592602847252258, 0.22259933945137256, -0.40228245113980243,
            -0.4326370727391984
          ],
          [
            -0.12264932290281738, -0.6706840815412884, 0.3042120901892251,
            0.7766803351602398
          ]
        ]
      }
    ]
  },
  {
    "version": 1,
    "score": 328.0798154616052,
    "mutationFactor": 0.5,
    "mutationIndex": 0.5,
    "diff": -2015.872747732475,
    "date": "2022-09-19T13:40:36.137Z",
    "levels": [
      {
        "inputs": [
          0.17790212665420246, 0, 0, 0, 0.7399279859957908, 0.8502322589597581,
          0.8792600774911714, 0.8804679779427429, 0.8553389852473021,
          0.9983333333333334
        ],
        "outputs": [1, 1, 1, 0],
        "biases": [
          -0.3404152071562141, 0.946318700179964, -0.5582440888734168,
          0.7594349688107394
        ],
        "weights": [
          [
            0.7399791356771965, 0.6013796279999402, -0.7243837853500512,
            0.7444613435930041
          ],
          [
            0.4693253637497419, -0.1324396018596663, 0.39649543340362614,
            -0.06373556507046985
          ],
          [
            -0.9872260645891155, 0.37203689843517385, 0.6681479175822171,
            0.9183675195893866
          ],
          [
            0.48894134034888603, -0.24532576323781807, -0.3614009472604294,
            0.14175907057333648
          ],
          [
            -0.3838230247848933, 0.44397029670518817, 0.7152314610072015,
            0.3754841865424603
          ],
          [
            0.49175544590451237, 0.6161031128230383, -0.4398073632256061,
            -0.2276668737628058
          ],
          [
            0.5844538059349245, 0.20532541197053877, 0.12333294684521512,
            -0.4466010748127247
          ],
          [
            -0.9936336397318306, 0.4748865567976406, -0.04306178689460616,
            -0.6164579469391067
          ],
          [
            0.29628728193182496, 0.3171444501608689, -0.6726860659476945,
            -0.8413287203791859
          ],
          [
            0.1843966638568144, -0.7198146283325721, 0.16098144730498332,
            0.7693646747967215
          ]
        ]
      }
    ]
  },
  {
    "version": 1,
    "score": 228.7794398802104,
    "mutationFactor": 0.5,
    "mutationIndex": 0.5,
    "diff": -2015.872747732475,
    "date": "2022-09-19T13:40:36.137Z",
    "levels": [
      {
        "inputs": [
          0.05066480943929641, 0, 0, 0.6112957593785375, 0.8055957654164876,
          0.8522935087763642, 0.860192075526563, 0.839257094993553,
          0.7588417513971575, 0.950000000000001
        ],
        "outputs": [1, 0, 1, 0],
        "biases": [
          -0.3194206323948081, 0.8530474235057373, -0.464599133797277,
          0.819423021145294
        ],
        "weights": [
          [
            -0.3116390512561571, 0.365315403622688, 0.8564238802124309,
            0.834448495483219
          ],
          [
            -0.8014077858715214, 0.07747756904786174, -0.45929841165961705,
            0.054842542718911425
          ],
          [
            0.6517936548853838, -0.7193609903191529, 0.5779052316164539,
            0.5178602117611848
          ],
          [
            -0.21761597731939641, 0.4488041690717579, 0.14806468751665092,
            -0.8737005631732702
          ],
          [
            0.8942233181331485, -0.7069922016297308, 0.8175645464259684,
            -0.05316073811692679
          ],
          [
            -0.9036739787413386, 0.010166395613695034, 0.41469030832234965,
            -0.20020429601531164
          ],
          [
            0.37952837708572895, -0.1284928980523099, 0.5067944822626784,
            -0.5820678228712115
          ],
          [
            0.776783964413823, -0.25836955663292516, 0.30804612760505057,
            -0.899313698171623
          ],
          [
            0.136733824436027, 0.46477082941744996, 0.6133374911592089,
            -0.08134126624308236
          ],
          [
            -0.05761342894752142, -0.20251812492859056, -0.822108737692048,
            0.018211590599993333
          ]
        ]
      }
    ]
  }
]
